<?xml version="1.0"?>
<opencv_storage>
<opencv_ml_svm>
  <format>3</format>
  <svmType>C_SVC</svmType>
  <kernel>
    <type>RBF</type>
    <gamma>1.</gamma></kernel>
  <C>1.</C>
  <term_criteria><epsilon>1.1920928955078125e-07</epsilon>
    <iterations>1000</iterations></term_criteria>
  <var_count>3780</var_count>
  <class_count>5</class_count>
  <class_labels type_id="opencv-matrix">
    <rows>5</rows>
    <cols>1</cols>
    <dt>i</dt>
    <data>
      0 1 2 3 4</data></class_labels>
  <sv_total>86</sv_total>
  <support_vectors>
    <_>
      0. 0. 0. 0. 0. 0. 0. 0. 0. 0. 0. 0. 0. 0. 0. 0. 0. 0. 0. 0. 0. 0.
      0. 0. 0. 0. 0. 0. 0. 0. 0. 0. 0. 0. 0. 0. 0. 0. 0. 0. 0. 0. 0. 0.
      0. 0. 0. 0. 0. 0. 0. 0. 0. 0. 0. 0. 0. 0. 0. 0. 0. 0. 0. 0. 0. 0.
      0. 0. 0. 0. 0. 0. 0. 0. 0. 0. 0. 0. 0. 0. 0. 0. 0. 0. 0. 0. 0. 0.
      0. 0. 0. 0. 0. 0. 0. 0. 0. 0. 0. 0. 0. 0. 0. 0. 0. 0. 0. 0. 0. 0.
      0. 0. 0. 0. 0. 0. 0. 0. 0. 0. 0. 0. 0. 0. 0. 0. 0. 0. 0. 0. 0. 0.
      0. 0. 0. 0. 0. 0. 0. 0. 0. 0. 0. 0. 0. 0. 0. 0. 0. 0. 0. 0. 0. 0.
      0. 0. 0. 0. 0. 0. 0. 0. 0. 0. 0. 0. 0. 0. 0. 0. 0. 0. 0. 0. 0. 0.
      0. 0. 0. 0. 0. 0. 0. 0. 0. 0. 0. 0. 0. 0. 0. 0. 0. 0. 0. 0. 0. 0.
      0. 0. 0. 0. 0. 0. 0. 0. 0. 0. 0. 0. 0. 0. 0. 0. 0. 0. 0. 0. 0. 0.
      0. 0. 0. 0. 0. 0. 0. 0. 0. 0. 0. 0. 0. 0. 0. 0. 0. 0. 0. 0. 0. 0.
      0. 0. 0. 0. 0. 0. 0. 0. 0. 0. 0. 0. 0. 0. 0. 0. 0. 0. 0. 0. 0. 0.
      0. 0. 0. 0. 0. 0. 0. 0. 0. 0. 0. 0. 0. 0. 0. 0. 0. 0. 0. 0. 0. 0.
      0. 0. 0. 0. 0. 0. 0. 0. 0. 0. 0. 0. 0. 0. 0. 0. 0. 0. 0. 0. 0. 0.
      0. 0. 0. 0. 0. 0. 0. 0. 0. 0. 0. 0. 0. 0. 0. 0. 0. 0. 0. 0. 0. 0.
      0. 0. 0. 0. 0. 0. 0. 0. 0. 0. 0. 0. 0. 0. 0. 0. 0. 0. 0. 0. 0. 0.
      0. 0. 0. 0. 0. 0. 0. 0. 0. 0. 0. 0. 0. 0. 0. 0. 0. 0. 0. 0. 0. 0.
      0. 0. 0. 0. 0. 0. 0. 0. 0. 0. 0. 0. 0. 0. 0. 0. 0. 0. 0. 0. 0. 0.
      0. 0. 0. 0. 0. 0. 0. 0. 0. 0. 0. 0. 0. 0. 0. 0. 0. 0. 0. 0. 0. 0.
      0. 0. 0. 0. 0. 0. 0. 0. 0. 0. 0. 0. 0. 0. 0. 0. 0. 0. 0. 0. 0. 0.
      0. 0. 0. 0. 0. 0. 0. 0. 0. 0. 0. 0. 0. 0. 0. 0. 0. 0. 0. 0. 0. 0.
      0. 0. 0. 0. 0. 0. 0. 0. 0. 0. 0. 0. 0. 0. 0. 0. 0. 0. 0. 0. 0. 0.
      0. 0. 0. 0. 0. 0. 0. 0. 0. 0. 0. 0. 0. 0. 0. 0. 0. 0. 0. 0. 0. 0.
      0. 0. 0. 0. 0. 0. 0. 0. 0. 0. 0. 0. 0. 0. 0. 0. 0. 0. 0. 0. 0. 0.
      0. 0. 0. 0. 0. 0. 0. 0. 0. 0. 0. 0. 0. 0. 0. 0. 0. 0. 0. 0. 0. 0.
      0. 0. 0. 0. 0. 0. 0. 0. 0. 0. 0. 0. 0. 0. 0. 0. 0. 0. 0. 0. 0. 0.
      0. 0. 0. 0. 0. 0. 0. 0. 0. 0. 0. 0. 0. 0. 0. 0. 0. 0. 0. 0. 0. 0.
      0. 0. 0. 0. 0. 0. 0. 0. 0. 0. 0. 0. 0. 0. 0. 0. 0. 0. 0. 0. 0. 0.
      0. 0. 0. 0. 0. 0. 0. 0. 0. 0. 0. 0. 0. 0. 0. 0. 0. 0. 0. 0. 0. 0.
      0. 0. 0. 0. 0. 0. 0. 0. 0. 0. 0. 0. 0. 0. 0. 0. 0. 0. 0. 0. 0. 0.
      0. 0. 0. 0. 0. 0. 0. 0. 0. 0. 0. 0. 0. 0. 0. 0.421706766 0. 0. 0.
      0. 0. 0. 0. 0.421706766 0. 0. 0. 0. 0. 0. 0. 0. 0. 0. 0. 0. 0. 0.
      0. 0. 0. 0. 0.0982829481 0. 0. 0. 0. 0. 0. 0. 0.0982829481
      0.534401953 0.468935221 0.31439203 0.432163954 0.265768647
      0.0262346305 0. 0. 0.332557023 0. 0. 0. 0. 0. 0. 0. 0. 0. 0. 0. 0.
      0. 0. 0. 0. 0. 0. 0.515109479 0.192617729 0.11116378 0.132244632
      0.0992810428 0.0140859103 0. 0. 0.288429379 0.515109479
      0.159195706 0.0631355941 0.0732242838 0.0619424097 0.010955709 0.
      0. 0.515109479 0. 0. 0. 0. 0. 0. 0. 0. 0. 0. 0. 0. 0. 0. 0. 0. 0.
      0. 0.498727649 0.0093009565 0.000225880009 0.00375819136
      0.00105030381 0. 0. 0. 0.498727649 0.498727649 0. 0. 0. 0. 0. 0.
      0. 0.498727649 0. 0. 0. 0. 0. 0. 0. 0. 0. 0. 0. 0. 0. 0. 0. 0. 0.
      0. 0.49875313 0. 0. 0. 0. 0. 0. 0. 0.49875313 0.49875313 0. 0. 0.
      0. 0. 0. 0. 0.49875313 0. 0. 0. 0. 0. 0. 0. 0. 0. 0. 0. 0. 0. 0.
      0. 0. 0. 0. 0.478815705 0. 0. 0. 0.000183458076 0.00475543132
      0.00750069087 0.0146613969 0.478815705 0.478815705 0. 0. 0.
      0.0141611472 0.15100421 0.0994301587 0.212077096 0.478815705 0. 0.
      0. 0. 0. 0. 0. 0. 0. 0. 0. 0. 0. 0. 0. 0. 0. 0. 0.469068855 0. 0.
      0. 0.0609021373 0.469068855 0.315241516 0.469068855 0.469068855
      0.0584028699 0. 0. 0. 0.0108345794 0.054015018 0.0273638759
      0.0304600243 0.0632734075 0. 0. 0. 0. 0. 0. 0. 0. 0. 0. 0. 0. 0.
      0. 0. 0. 0. 0. 0.654297113 0. 0. 0. 0. 0. 0. 0. 0.654297113 0. 0.
      0. 0. 0. 0. 0. 0. 0. 0. 0. 0. 0. 0. 0. 0. 0. 0. 0. 0. 0. 0. 0. 0.
      0. 0. 0. 0. 0. 0. 0. 0. 0. 0. 0. 0. 0. 0. 0. 0. 0. 0. 0. 0. 0. 0.
      0. 0. 0. 0. 0. 0. 0. 0. 0. 0. 0. 0. 0. 0. 0. 0. 0. 0. 0. 0. 0. 0.
      0. 0. 0. 0. 0. 0. 0. 0. 0. 0. 0. 0. 0. 0. 0. 0. 0. 0. 0. 0. 0. 0.
      0. 0. 0. 0. 0. 0. 0. 0. 0. 0. 0. 0. 0. 0. 0. 0. 0. 0. 0. 0. 0. 0.
      0. 0. 0. 0. 0. 0. 0. 0. 0. 0. 0. 0. 0. 0. 0. 0. 0. 0. 0. 0. 0. 0.
      0. 0. 0. 0. 0. 0. 0. 0. 0. 0. 0. 0. 0. 0. 0. 0. 0. 0. 0. 0. 0. 0.
      0. 0. 0. 0. 0. 0. 0. 0. 0. 0. 0. 0. 0. 0. 0. 0. 0. 0. 0. 0. 0. 0.
      0. 0. 0. 0. 0. 0. 0. 0. 0. 0. 0. 0. 0. 0. 0. 0. 0. 0. 0. 0.
      0.0275396984 0.0156225329 0.0117448913 0.00641399482 0.00836084131
      0. 0. 0. 0.023363309 0. 0. 0. 0. 0. 0. 0. 0. 0. 0.195401445
      0.234338 0.176173359 0.0962099135 0.895610273 0.0505737029
      0.0926072821 0.123181939 0.165686131 0.024883816 0.00437462563
      0.00199476257 0.00108935859 0.00086128118 0. 0. 0. 0.0197929274
      0.0931160823 0.0199544542 0.00090671028 0.000495162967
      0.000198757203 0. 0. 0. 0.0636820495 0.225552574 0.0873679519
      0.0528437532 0.0631977618 0.266447812 0.0148679828 0.0440645665
      0.0596203171 0.186952099 0.402114004 0.402114004 0.23697938
      0.356010079 0.357981175 0.0177170131 0.0652504712 0.0644497052
      0.402114004 0.0886800736 0.0491513163 0.000377452292 0. 0. 0. 0.
      0. 0.0198631771 0.282360077 0.105595097 0.00163562631 0. 0. 0. 0.
      0. 0.101512216 0.402997881 0.402997881 0.0817680508 0.0753109008
      0.0379667282 0.00185724895 0.0082331989 0.00874132197 0.25203374
      0.402997881 0.402997881 0.0578692555 0.00193622184 0.0111739263
      0.00467782374 0.0269320961 0.0321104713 0.389566004 0.281395584
      0.101892829 0.00121857529 0. 0. 0. 0. 0. 0.117681563 0.324897707
      0.116600744 0.0193809718 0.0385387391 0.0452485271 0.0190803111
      0.0157999098 0.0176168866 0.228423744 0.324897707 0.324897707
      0.0225878023 0.0016653802 0.0111247459 0.00326194544 0.0161457453
      0.0103679104 0.324897707 0.324897707 0.26886636 0.0146663124
      0.038315665 0.324897707 0.0486561097 0.0577109121 0.0560065918
      0.324897707 0.28268677 0.0913986266 0.0609943829 0.121900782
      0.1543383 0.0598661676 0.0174689777 0.0207389034 0.199473664
      0.30933702 0.0818134025 0.0438477769 0.0910437256 0.12303105
      0.0502329245 0.00260587735 0.00351554109 0.30933702 0.281910926
      0.0722411349 0.0559178703 0.179234266 0.30933702 0.108016349
      0.0569622815 0.0608745739 0.254284233 0.302112162 0.0534589887
      0.0589021817 0.16150938 0.30933702 0.0688317269 0.00696829846
      0.00875079073 0.270226747 0.352541447 0.0114667835 0.00257876655
      0.00811399892 0.0103163421 0.00482172985 0. 0. 0.352541447
      0.352541447 0. 0. 0. 0. 0. 0. 0. 0.352541447 0.352541447
      0.00942867901 0.00773276202 0.0139933396 0.038436912 0.00619936641
      0. 0. 0.352541447 0.352541447 0. 0. 0. 0. 0. 0. 0. 0.352541447
      0.352929503 0. 0. 0. 0. 0. 0. 0. 0.352929503 0.352929503 0. 0. 0.
      0. 0. 0. 0. 0.352929503 0.352929503 0. 0. 0. 0. 0. 0. 0.
      0.352929503 0.352929503 0. 0. 0. 0. 0. 0. 0. 0.352929503
      0.32320264 0.00109428389 0. 0.00526660541 0.00470569963
      0.00791404583 0.009934403 0.011841787 0.32320264 0.32320264
      0.00240742462 0. 0.0228219591 0.0539930612 0.201829612 0.126854286
      0.169912681 0.32320264 0.32320264 0.00140693644 0. 0.00677134981
      0.00730041694 0.00846111123 0.0102252923 0.00729417475 0.32320264
      0.32320264 0.00309526012 0. 0.0293425173 0.0673108399 0.178691834
      0.133288145 0.127164394 0.32320264 0.198797643 0.00055627618 0.
      0.00869436562 0.0380647965 0.180988207 0.103969045 0.195841104
      0.299963921 0.0943693221 0. 0. 0. 0.00334964064 0.0232763011
      0.0494439304 0.196485534 0.227080047 0.299963921 0.00118921476
      0.00141839625 0.0120701613 0.0543180741 0.156098634 0.128628805
      0.287921637 0.299963921 0.299963921 0.0215473883 0.0299993902
      0.0154776238 0.0624015592 0.0985156372 0.299963921 0.299963921
      0.299963921 0.0283507537 0. 0. 0. 0.00243348931 0.0096617071
      0.0442541242 0.0970000848 0.0701032877 0.0437635183 0. 0. 0.
      0.000561574474 0.000376621872 0.00195967196 0.00163391
      0.0449665375 0.421413243 0.028091263 0.0303416755 0.0143302884
      0.0377331078 0.0846661106 0.328055829 0.381927043 0.421413243
      0.421413243 0.00221485691 0.000815870008 0.000196615569
      0.00123546377 0.00163202814 0.010612512 0.0136440825 0.421413243
      0.0500189513 0. 0. 0. 0. 0. 0. 0.000632974261 0.0531639159
      0.0286306702 0. 0. 0. 0. 0. 0.000497603847 0.00542216143
      0.038222488 0.458873749 0.0139761837 0.00303626014 0.000516771805
      0.0508444794 0.00222891709 0.00673139375 0.0406676978 0.458873749
      0.458873749 0.0650362074 0.0377866365 0.0201039948 0.277120084
      0.0527727194 0.0924391299 0.216415763 0.458873749 0.0250187982 0.
      0. 0. 0. 0. 0.00299353781 0.0177059062 0.0427909344 0. 0. 0. 0. 0.
      0. 0.000199569171 6.66925116e-05 0. 0.410650253 0.153728575
      0.1360351 0.102595173 0.440234333 0.261625051 0.346636087
      0.440234333 0.440234333 0. 0.000171969354 0.000603113207
      0.0049540652 0.0361534581 0.0126210134 0.00321904314 0.00100038771
      0. 0. 0. 0. 0. 0. 0. 0. 0. 0. 0. 0. 0. 0. 0. 0. 0. 0. 0. 0. 0. 0.
      0. 0. 0. 0. 0. 0. 0. 0. 0. 0. 0. 0. 0. 0. 0. 0. 0. 0. 0. 0. 0. 0.
      0. 0. 0. 0. 0. 0. 0. 0. 0. 0. 0. 0. 0. 0. 0. 0. 0. 0. 0. 0. 0. 0.
      0. 0. 0. 0. 0. 0. 0. 0. 0. 0. 0. 0. 0. 0. 0. 0. 0. 0. 0. 0. 0. 0.
      0. 0. 0. 0. 0. 0. 0. 0. 0. 0. 0. 0. 0. 0. 0. 0. 0. 0. 0. 0. 0. 0.
      0. 0. 0. 0.000386796484 0. 0. 0. 0. 0.117125973 0.0718368739
      0.063312605 0.0290492196 0.375628889 0.0304158963 0.055695612
      0.0740837529 0.0981598049 0. 0. 0. 0. 0.0180283636 0. 0. 0. 0.
      0.501084507 0.214947671 0.296172827 0.13816534 0.501084507
      0.0540177748 0.0989138409 0.0784760788 0.369660318 0.0589610599
      0.0324704424 0.035143666 0.0564469248 0.214216605 0.0398065969
      0.0324948244 0.040781159 0.0636096671 0.277190179 0.184844255
      0.185941577 0.277190179 0.277190179 0.196599796 0.105505385
      0.0679184049 0.226463899 0.0931745693 0.0595585629 0.0888215601
      0.0537471883 0.236778244 0.0670725033 0.0246712044 0.0271230005
      0.101191953 0.154684126 0.0666905716 0.158796296 0.195347697
      0.277190179 0.277190179 0.186735108 0.277190179 0.277190179
      0.293449074 0.293449074 0.102788843 0.142361954 0.117244892
      0.0764858872 0.044725921 0.0326268263 0.183402076 0.293449074
      0.293449074 0.0552182607 0.0104936864 0.0250233132 0.0070462646
      0.0394444093 0.0395440646 0.185485169 0.135029539 0.026374707
      0.0472840071 0.0839831978 0.132549301 0.157729372 0.113178864
      0.293449074 0.293449074 0.229771927 0.0352456421 0.0704795569
      0.0794508234 0.162246808 0.0237023383 0.0632560104 0.293449074
      0.293449074 0.338819236 0.176478162 0.0449195504 0.00719483616
      0.0344985761 0.0110102044 0.0404737294 0.0231433213 0.210263461
      0.26707074 0.095706515 0.0069387299 0.00767824752 0.338819236
      0.0215408374 0.0286854431 0.022849299 0.164033175 0.227711663
      0.0220857449 0.0587026402 0.0483579077 0.225862309 0.0583725609
      0.103137016 0.226970226 0.338819236 0.241244242 0.0228653383
      0.0469349287 0.026541207 0.338819236 0.0300508179 0.0308770481
      0.0727091879 0.322072446 0.0583215877 0.0110364333 0.0111077046
      0.0420435406 0.488148063 0.0279826168 0.0198935326 0.0197928529
      0.0565622859 0.0255408809 0.00243026833 0.0161902606 0.0418419465
      0.488148063 0.01230474 0.00210134615 0.00246660947 0.0263694655
      0.0905336812 0.0214689989 0.0384330675 0.0377014764 0.488148063
      0.0699257627 0.0104361363 0.00327668409 0.0740769878 0.00400351034
      0.00310756033 0.00378642255 0.0124700917 0.488148063 0.075876452
      0.0153034003 0.00269233179 0.00334812608 0.391032457 0.00480830902
      0.0326509401 0.0385736898 0.411763638 0.010315245 0. 0.
      0.391032457 0.411763638 0. 0. 0. 0. 0. 0. 0. 0.411763638 0. 0. 0.
      0. 0.411763638 0.090832524 0.030417677 0.004167201 0. 0. 0. 0. 0.
      0. 0. 0. 0. 0. 0.49875313 0. 0. 0. 0. 0. 0. 0. 0.49875313
      0.49875313 0. 0. 0. 0. 0. 0. 0. 0.49875313 0. 0. 0. 0. 0. 0. 0. 0.
      0. 0. 0. 0. 0. 0. 0. 0. 0. 0. 0.262398571 0.00146457483 0.
      0.00704875449 0.00963424239 0.00610542484 0.00693076849
      0.00017815076 0.259234071 0.407663345 0.00322206435 0.
      0.0305446032 0.0679285601 0.0744135529 0.129173219 0.0942395702
      0.407663345 0.0395996273 0.017280411 0.033016406 0.0291922335
      0.0883716494 0. 0. 0. 0.0332450196 0.407663345 0.201263547
      0.170350879 0.0969121307 0.258032262 0. 0. 0. 0.407663345
      0.119787037 0.00171640282 0.00480145728 0.00636563962 0.0543021411
      0.0149443941 0.0368523337 0.0791105255 0.177699313 0.267649621
      0.0764626935 0.117195956 0.0801503509 0.25339219 0.121570155
      0.267649621 0.267649621 0.267649621 0.265439391 0.0553002879
      0.0479003936 0.0238751322 0.0645449236 0.00476417178 0.00517125614
      0.00172814319 0.200651199 0.267649621 0.254250705 0.267649621
      0.223245263 0.264183134 0.082694605 0.124176919 0.0818816125
      0.267649621 0.344185412 0.0318260156 0.0384288803 0.0228768121
      0.0464877598 0.0345688425 0.0896323323 0.0792355761 0.344185412
      0.344185412 0.00289084692 0.00130245124 0.000313876226
      9.81944977e-05 0.000465736521 0.00275945943 0.00481546996
      0.344185412 0.344185412 0.0776911974 0.112800241 0.060191907
      0.0483931378 0.0236029979 0.0405040756 0.0339447111 0.344185412
      0.344185412 0.00569850532 0.0032872064 0.000839763612
      0.00014740738 0.000323839777 0.00134379556 0.0030374506
      0.344185412 0.332461923 0.0135504296 0.00281039882 0.00046579371
      0.0327494442 0.00122344447 0.00332597201 0.0186483096 0.332461923
      0.332461923 0.06488581 0.0357766375 0.0181207918 0.178230897
      0.0253777169 0.0451593548 0.093412526 0.332461923 0.332461923
      0.0208048187 0.00408704532 0.000700543518 0.0361046344 0.001178078
      0.00276018307 0.0146774957 0.332461923 0.332461923 0.104885072
      0.0522717275 0.0272532757 0.19650276 0.0210489538 0.0371328481
      0.0701641962 0.332461923 0.26275295 0.17859146 0.148156255
      0.10512054 0.31995818 0.141220123 0.190417454 0.26583612
      0.31995818 0. 0.000269548793 0.000897286867 0.00507600838
      0.0257818699 0.00676528551 0.00140315469 0.000428514206 0.
      0.31995818 0.29985854 0.217962563 0.158098966 0.31995818
      0.11519555 0.155325145 0.192813963 0.296433032 0. 0.000490781211
      0.00160500652 0.00763420528 0.0284545943 0.00546695292
      0.000929876987 0.000278105465 0. 0. 0. 0. 0. 0. 0. 0. 0. 0. 0. 0.
      0. 0. 0. 0. 0. 0. 0. 0. 0. 0. 0. 0. 0. 0. 0. 0. 0. 0. 0. 0. 0. 0.
      0. 0. 0. 0. 0. 0. 0. 0. 0. 0. 0. 0. 0. 0. 0. 0. 0. 0. 0. 0. 0. 0.
      0. 0. 0. 0. 0. 0. 0. 0. 0. 0. 0. 0. 0. 0. 0. 0. 0. 0. 0. 0. 0. 0.
      0. 0. 0. 0. 0. 0. 0. 0. 0. 0. 0. 0. 0. 0. 0. 0. 0. 0. 0. 0. 0. 0.
      0. 0. 0. 0. 0. 0. 0. 0. 0. 0. 0. 0. 0. 0.0207435898 0. 0. 0. 0.
      0.540524602 0.193054512 0.239461869 0.108081929 0.550153196
      0.0906892791 0.166064322 0.118439235 0.459463209 0. 0. 0. 0.
      0.00207408145 0. 0. 0. 0. 0.0970870033 0.0201678183 0.0133033646
      0.00169488089 0.078053534 0.0209282953 0.0383225344 0.027332129
      0.115098849 0.261523157 0.118504599 0.149183944 0.0499851666
      0.294113547 0.0653668195 0.0402665809 0.0498019904 0.297769934
      0.388778299 0.0867852643 0.144256741 0.0400073417 0.28056708
      0.300899446 0.174672917 0.388778299 0.388778299 0.0459494479
      0.0130048944 0.00993681699 0.0012659746 0.0140344445 0.00348801166
      0.00638702093 0.00751043111 0.0483464301 0.0577523001
      0.00911557954 0.0077286358 0.000984646962 0.00233448879
      0.000232534134 0.000425801409 0.030225968 0.113136381 0.154099092
      0.00645484962 0.0094769923 0.0134520158 0.0427652523 0.0638144389
      0.0672585145 0.39857322 0.39857322 0.347129852 0.0170449577
      0.0499794893 0.08495868 0.158129051 0.0276565235 0.0532826409
      0.39857322 0.39857322 0.0251473524 0.000204814423 7.67810125e-05
      0.000185949655 0. 0. 0.00019499207 0.066751264 0.120939948
      0.098067075 0. 0.00118054159 0.00284484518 0.000946532295
      0.00149058376 0.00206129323 0.153396398 0.337784618 0.301983684
      0.00557067525 0.0213929303 0.0307473559 0.124854259 0.0364800617
      0.0564260297 0.317282498 0.317282498 0.317282498 0.0419570953
      0.073134385 0.0482857935 0.317282498 0.0525726154 0.0310605764
      0.140061408 0.317282498 0.141287655 0. 0.000510451675
      0.00122624764 0.00109516049 0.00181716087 0.00318098464
      0.119999833 0.317282498 0.317282498 0.0146650821 0.0200496521
      0.0199258346 0.0489305444 0.0457003452 0.0242164508 0.0741925538
      0.317282498 0.266621321 0.0445775986 0.0672549158 0.0900378302
      0.304908574 0.192326427 0.0488104336 0.0514511913 0.26487726
      0.22906895 0.00726728933 0.00762068154 0.0417764336 0.304908574
      0.186698958 0.0480189659 0.0570628941 0.296164304 0.218994886
      0.0166626368 0.0197981205 0.0497440547 0.161930025 0.133994848
      0.0656161085 0.0935485363 0.304908574 0.304908574 0.00306331972
      0.00274579297 0.030387817 0.146107435 0.105059601 0.0454554334
      0.089645341 0.304908574 0.311240345 0. 0. 0. 0.0418942086
      0.0193557739 0.00552918389 0.00945310015 0.327049673 0.36280477 0.
      0. 0. 0. 0. 0. 0. 0.36280477 0.36280477 0. 0. 0. 0.0167094637
      0.0104512144 0.00223874138 0.0116613843 0.36280477 0.36280477 0.
      0. 0. 0. 0. 0. 0. 0.36280477 0.324212104 0. 0. 0. 0. 0. 0. 0.
      0.324212104 0.361975282 0. 0. 0. 0. 0. 0. 0. 0.361975282
      0.361975282 0. 0. 0. 0. 0. 0. 0. 0.361975282 0.361975282 0. 0. 0.
      0. 0. 0. 0. 0.361975282 0.323760837 0.0254640095 0.0127887912
      0.0187776014 0.0481588133 0. 0. 0. 0.301799893 0.323760837
      0.143965155 0.0981043652 0.113860354 0.197782189 0. 0. 0.
      0.315434068 0.323760837 0.029586114 0.0079232268 0.0158039145
      0.0365568884 0. 0. 0. 0.323760837 0.323760837 0.167956114
      0.103387363 0.131377697 0.180714801 0. 0. 0. 0.323760837
      0.303194135 0.165353 0.117045902 0.102979474 0.113591574
      0.000610926712 0.00103446434 0.000345699809 0.303194135
      0.303194135 0.303194135 0.303194135 0.193906114 0.0493188985
      0.0106042242 0.0214936864 0.0156281572 0.303194135 0.303194135
      0.145404726 0.103537798 0.121082202 0.107017308 0. 0. 0.
      0.25782159 0.277634442 0.111422509 0.0868869796 0.0403025076
      0.00437117601 0. 0. 0. 0.157941371 0.415299028 0.274858952
      0.400628209 0.194403782 0.0345680602 0.0113243861 0.0248999167
      0.0233990643 0.415299028 0.415299028 0.014045136 0.0110564278
      0.00392656634 0.00142052921 0.000155373753 0.000644734246
      0.00180972717 0.415299028 0.0976659656 0.0743283555 0.0807576627
      0.033457946 0.00279801222 0. 0. 0. 0.0477065668 0.0468864441
      0.00167658087 0.00227627624 0.00115925423 0.000645695138 0. 0. 0.
      0.0456846803 0.461948365 0.0403112657 0.00728878519 0.00129575992
      0.0470103472 0.00134303444 0.00240691565 0.0122333523 0.461948365
      0.461948365 0.216782659 0.0944839492 0.0504089966 0.256362081
      0.0196590647 0.0316971093 0.0567746609 0.461948365 0.057331644
      0.000684748578 4.1604435e-06 0. 0. 0. 0. 0. 0.0543010607
      0.0411073901 0.00577394338 0.00058374583 0. 0. 0. 0. 0. 0.03154511
      0.456842393 0.456842393 0.335726738 0.246031642 0.456842393
      0.0880979896 0.110269457 0.12803477 0.394418687 0. 0.00100240379
      0.00321184145 0.0118802534 0.0322746597 0.00411534449
      0.000475107896 0.000134200047 0. 0.043993704 0.0179380532
      0.00321735721 0. 0. 0. 0. 0. 0.0268202256 0. 6.68269204e-05
      0.000199971648 0. 0. 0. 0. 0. 0. 0. 0. 0. 0. 0. 0. 0. 0. 0. 0. 0.
      0. 0. 0. 0. 0. 0. 0. 0. 0. 0. 0. 0. 0. 0. 0. 0. 0. 0. 0. 0. 0. 0.
      0. 0. 0. 0. 0. 0. 0. 0. 0. 0. 0. 0. 0. 0. 0. 0. 0. 0. 0. 0. 0. 0.
      0. 0. 0. 0. 0. 0. 0. 0. 0. 0. 0. 0. 0. 0. 0. 0. 0. 0. 0. 0. 0. 0.
      0. 0. 0. 0. 0. 0. 0. 0. 0. 0. 0. 0. 0. 0. 0. 0. 0. 0. 0. 0. 0. 0.
      0. 0. 0. 0. 0. 0. 0. 0. 0. 0. 0. 0. 0. 0. 0. 0. 0. 0. 0. 0. 0. 0.
      0. 0. 0. 0. 0. 0. 0. 0. 0. 0. 0. 0. 0. 0. 0. 0. 0. 0. 0. 0. 0. 0.
      0. 0. 0. 0. 0. 0. 0. 0. 0. 0. 0. 0. 0. 0. 0. 0. 0. 0. 0. 0. 0. 0.
      0. 0. 0. 0. 0. 0. 0. 0. 0. 0. 0. 0. 0. 0. 0. 0. 0. 0. 0. 0. 0. 0.
      0. 0. 0.65141505 0. 0. 0. 0. 0. 0. 0. 0.65141505 0. 0. 0. 0. 0. 0.
      0. 0. 0. 0. 0. 0. 0. 0. 0. 0. 0. 0. 0.182797477 0. 0. 0. 0. 0. 0.
      0. 0.182797477 0.362807125 0. 0. 0.0239542853 0.229181349
      0.390047729 0.291919053 0.435442656 0.558313668 0. 0. 0. 0. 0. 0.
      0. 0. 0. 0. 0. 0. 0. 0. 0. 0. 0. 0. 0.278306365 0. 0. 0.013030448
      0.0814786926 0.120084681 0.104261465 0.179144889 0.514002383
      0.528149724 0. 0. 0.0101347929 0.0476810634 0.0655953735
      0.0590323023 0.14433375 0.528149724 0. 0. 0. 0. 0. 0. 0. 0. 0. 0.
      0. 0. 0. 0. 0. 0. 0. 0. 0.498734862 0. 0. 0. 0.000418797426
      0.00324697257 0.000194447653 0.00789121538 0.498734862 0.498734862
      0. 0. 0. 0. 0. 0. 0. 0.498734862 0. 0. 0. 0. 0. 0. 0. 0. 0. 0. 0.
      0. 0. 0. 0. 0. 0. 0. 0.49875313 0. 0. 0. 0. 0. 0. 0. 0.49875313
      0.49875313 0. 0. 0. 0. 0. 0. 0. 0.49875313 0. 0. 0. 0. 0. 0. 0. 0.
      0. 0. 0. 0. 0. 0. 0. 0. 0. 0. 0.485694468 0.0241438113
      0.00334034325 0.00840277411 0.00395757938 0. 0. 0. 0.485694468
      0.485694468 0.169781759 0.0888897777 0.100023501 0.0643441677 0.
      0. 0. 0.485694468 0. 0. 0. 0. 0. 0. 0. 0. 0. 0. 0. 0. 0. 0. 0. 0.
      0. 0. 0.542233944 0.447241753 0.309728533 0.362573117 0.18663308
      0. 0. 0. 0.470791876 0.0827534497 0.0299696438 0.0259745792
      0.0453142971 0.0122504104 0. 0. 0. 0.0777817369 0. 0. 0. 0. 0. 0.
      0. 0. 0. 0. 0. 0. 0. 0. 0. 0. 0. 0. 0.666092694 0. 0. 0. 0. 0. 0.
      0. 0.666092694 0. 0. 0. 0. 0. 0. 0. 0. 0. 0. 0. 0. 0. 0. 0. 0. 0.
      0. 0. 0. 0. 0. 0. 0. 0. 0. 0. 0. 0. 0. 0. 0. 0. 0. 0. 0. 0. 0. 0.
      0. 0. 0. 0. 0. 0. 0. 0. 0. 0. 0. 0. 0. 0. 0. 0. 0. 0. 0. 0. 0. 0.
      0. 0. 0. 0. 0. 0. 0. 0. 0. 0. 0. 0. 0. 0. 0. 0. 0. 0. 0. 0. 0. 0.
      0. 0. 0. 0. 0. 0. 0. 0. 0. 0. 0. 0. 0. 0. 0. 0. 0. 0. 0. 0. 0. 0.
      0. 0. 0. 0. 0. 0. 0. 0. 0. 0. 0. 0. 0. 0. 0. 0. 0. 0. 0. 0. 0. 0.
      0. 0. 0. 0. 0. 0. 0. 0. 0. 0. 0. 0. 0. 0. 0. 0. 0. 0. 0. 0. 0. 0.
      0. 0. 0. 0. 0. 0. 0. 0. 0. 0. 0. 0. 0. 0. 0. 0. 0. 0. 0. 0. 0. 0.
      0. 0. 0. 0. 0. 0. 0. 0. 0. 0. 0. 0. 0. 0. 0. 0. 0. 0. 0. 0. 0. 0.
      0. 0. 0. 0. 0. 0. 0. 0. 0. 0. 0. 0. 0. 0. 0. 0. 0. 0. 0. 0. 0. 0.
      0. 0. 0. 0. 0. 0. 0. 0. 0. 0. 0. 0. 0. 0. 0. 0. 0. 0. 0. 0. 0. 0.
      0. 0. 0. 0. 0. 0. 0. 0. 0. 0. 0. 0. 0. 0. 0. 0. 0. 0. 0. 0. 0. 0.
      0. 0. 0. 0. 0. 0. 0. 0. 0. 0. 0. 0. 0. 0. 0. 0. 0. 0. 0. 0. 0. 0.
      0. 0. 0. 0. 0. 0. 0. 0. 0. 0. 0. 0. 0. 0. 0. 0. 0. 0. 0. 0. 0. 0.
      0. 0. 0. 0. 0. 0. 0. 0. 0. 0. 0. 0. 0. 0. 0. 0. 0. 0. 0. 0. 0. 0.
      0. 0. 0. 0. 0. 0. 0. 0. 0. 0. 0. 0. 0. 0. 0. 0. 0. 0. 0. 0. 0. 0.
      0. 0. 0. 0. 0. 0. 0. 0. 0. 0. 0. 0. 0. 0. 0. 0. 0. 0. 0. 0. 0. 0.
      0. 0. 0. 0. 0. 0. 0. 0. 0. 0. 0. 0. 0. 0. 0. 0. 0. 0. 0. 0. 0. 0.
      0. 0. 0. 0. 0. 0. 0. 0. 0. 0. 0. 0. 0. 0. 0. 0. 0. 0. 0. 0. 0. 0.
      0. 0. 0. 0. 0. 0. 0. 0. 0. 0. 0. 0. 0. 0. 0. 0. 0. 0. 0. 0. 0. 0.
      0. 0. 0. 0. 0. 0. 0. 0. 0. 0. 0. 0. 0. 0. 0. 0. 0. 0. 0. 0. 0. 0.
      0. 0. 0. 0. 0. 0. 0. 0. 0. 0. 0. 0. 0. 0. 0. 0. 0. 0. 0. 0. 0. 0.
      0. 0. 0. 0. 0. 0. 0. 0. 0. 0. 0. 0. 0. 0. 0. 0. 0. 0. 0. 0. 0. 0.
      0. 0. 0. 0. 0. 0. 0. 0. 0. 0. 0. 0. 0. 0. 0. 0. 0. 0. 0. 0. 0. 0.
      0. 0. 0. 0. 0. 0. 0. 0. 0. 0. 0. 0. 0. 0. 0. 0. 0. 0. 0. 0. 0. 0.
      0. 0. 0. 0. 0. 0. 0. 0. 0. 0. 0. 0. 0. 0. 0. 0. 0. 0. 0. 0. 0. 0.
      0. 0. 0. 0. 0. 0. 0. 0. 0. 0. 0. 0. 0. 0. 0. 0. 0. 0. 0. 0. 0. 0.
      0. 0. 0. 0. 0. 0. 0. 0. 0. 0. 0. 0. 0. 0. 0. 0. 0. 0. 0. 0. 0. 0.
      0. 0. 0. 0. 0. 0. 0. 0. 0. 0. 0. 0. 0. 0. 0. 0. 0. 0. 0. 0. 0. 0.
      0. 0. 0. 0. 0. 0. 0. 0. 0. 0. 0. 0. 0. 0. 0. 0. 0. 0. 0. 0. 0. 0.
      0. 0. 0. 0. 0. 0. 0. 0. 0. 0. 0. 0. 0. 0. 0. 0. 0. 0. 0. 0. 0. 0.
      0. 0. 0. 0. 0. 0. 0. 0. 0. 0. 0. 0. 0. 0. 0. 0. 0. 0. 0. 0. 0. 0.
      0. 0. 0. 0. 0. 0. 0. 0. 0. 0. 0. 0.</_>
    <_>
      0. 0. 0. 0. 0. 0. 0. 0. 0. 0. 0. 0. 0. 0. 0. 0. 0. 0. 0. 0. 0. 0.
      0. 0. 0. 0. 0. 0. 0. 0. 0. 0. 0. 0. 0. 0. 0. 0. 0. 0. 0. 0. 0. 0.
      0. 0. 0. 0. 0. 0. 0. 0. 0. 0. 0. 0. 0. 0. 0. 0. 0. 0. 0. 0. 0. 0.
      0. 0. 0. 0. 0. 0. 0. 0. 0. 0. 0. 0. 0. 0. 0. 0. 0. 0. 0. 0. 0. 0.
      0. 0. 0. 0. 0. 0. 0. 0. 0. 0. 0. 0. 0. 0. 0. 0. 0. 0. 0. 0. 0. 0.
      0. 0. 0. 0. 0. 0. 0. 0. 0. 0. 0. 0. 0. 0. 0. 0. 0. 0. 0. 0. 0. 0.
      0. 0. 0. 0. 0. 0. 0. 0. 0. 0. 0. 0. 0. 0. 0. 0. 0. 0. 0. 0. 0. 0.
      0. 0. 0. 0. 0. 0. 0. 0. 0. 0. 0. 0. 0. 0. 0. 0. 0. 0. 0. 0. 0. 0.
      0. 0. 0. 0. 0. 0. 0. 0. 0. 0. 0. 0. 0. 0. 0. 0. 0. 0.0928361937 0.
      0. 0. 0. 0. 0. 0. 0. 0. 0. 0. 0. 0. 0. 0. 0. 0. 0.972828269 0. 0.
      0. 0. 0.0289689004 0.015913941 0.0258814525 0.0736795962
      0.112696767 0.00313755125 0.00116828829 0.000358738122
      0.00710296212 0.328999102 0.0875701755 0.102196679 0.211935788
      0.30962798 0.0868977904 0.0771687105 0.0721642897 0.222642794
      0.0163752213 0.0107019087 0.0173857324 0.140548974 0.328999102
      0.10962493 0.0213096663 0.00567172188 0.00356450281 0.256887674
      0.105931006 0.122406512 0.328999102 0.328999102 0.328999102
      0.194552779 0.148011893 0.153182119 0.266117662 0.0486047417
      0.0375047103 0.0570448749 0.0638597831 0.0579936616 0.0603820346
      0.0718468055 0.252346605 0.266117662 0.0880549476 0.0665812567
      0.0721509457 0.0208998621 0.0453080386 0.0655882061 0.0886401683
      0.266117662 0.266117662 0.112626635 0.0923899785 0.266117662
      0.252586454 0.182996631 0.1171377 0.114941277 0.263126671
      0.266117662 0.184694365 0.151419446 0.180780649 0.184041053
      0.134327546 0.108869538 0.12021865 0.266117662 0.278396964
      0.0642844066 0.0787163302 0.0909971669 0.134260312 0.124263287
      0.186265931 0.193127766 0.290203989 0.0159836579 0.00228346512
      0.0128463944 0.018813787 0.098510839 0.0628853813 0.0713376179
      0.0536194593 0.0302287843 0.290203989 0.168835491 0.22266838
      0.242946014 0.290203989 0.253583789 0.270140857 0.199361071
      0.290203989 0.0528958961 0.0196860712 0.0601718202 0.0737672895
      0.290203989 0.108079828 0.096262753 0.0448813513 0.0420990065 0.
      0. 0. 0. 0.280901968 0. 0. 0. 0. 0. 0. 0. 0. 0. 0. 0. 0. 0. 0. 0.
      0. 0. 0.951209068 0. 0. 0. 0. 0. 0. 0. 0. 0. 0. 0. 0. 0. 0. 0. 0.
      0. 0. 0. 0. 0. 0. 0. 0. 0. 0. 0. 0. 0. 0. 0. 0. 0. 0. 0. 0. 0. 0.
      0. 0. 0. 0. 0. 0. 0. 0. 0. 0. 0. 0. 0. 0. 0. 0. 0. 0. 0. 0. 0. 0.
      0. 0. 0. 0. 0. 0. 0. 0. 0. 0. 0. 0. 0. 0. 0. 0. 0. 0. 0. 0. 0. 0.
      0. 0. 0. 0. 0. 0. 0. 0. 0. 0. 0. 0. 0. 0. 0. 0. 0. 0. 0. 0. 0. 0.
      0. 0. 0. 0. 0. 0. 0. 0. 0. 0. 0. 0. 0. 0. 0. 0. 0. 0. 0. 0. 0. 0.
      0. 0. 0. 0. 0. 0. 0. 0. 0. 0. 0. 0. 0. 0. 0. 0. 0. 0. 0. 0. 0. 0.
      0. 0. 0. 0. 0. 0. 0. 0. 0. 0. 0. 0. 0. 0. 0. 0. 0. 0. 0. 0. 0. 0.
      0. 0. 0. 0. 0. 0. 0. 0. 0. 0. 0. 0. 0. 0. 0. 0. 0. 0. 0. 0. 0. 0.
      0. 0. 0. 0. 0. 0. 0. 0. 0. 0. 0. 0. 0. 0. 0. 0. 0. 0. 0. 0. 0. 0.
      0. 0. 0. 0. 0. 0. 0. 0. 0. 0. 0. 0. 0. 0. 0. 0. 0. 0. 0. 0. 0. 0.
      0. 0. 0. 0. 0. 0. 0. 0. 0. 0. 0. 0. 0. 0. 0. 0. 0. 0. 0. 0. 0. 0.
      0. 0. 0. 0. 0. 0. 0. 0. 0. 0. 0. 0. 0. 0. 0. 0. 0. 0. 0. 0. 0. 0.
      0. 0. 0. 0. 0. 0. 0. 0. 0. 0. 0. 0. 0. 0. 0. 0. 0. 0. 0. 0. 0. 0.
      0. 0. 0. 0. 0. 0. 0. 0. 0. 0. 0. 0. 0. 0. 0. 0. 0. 0. 0. 0. 0. 0.
      0. 0. 0. 0. 0. 0. 0. 0. 0. 0. 0. 0. 0. 0. 0. 0. 0. 0. 0. 0. 0. 0.
      0. 0. 0. 0. 0. 0. 0. 0. 0. 0. 0. 0. 0. 0. 0. 0. 0. 0. 0. 0. 0. 0.
      0. 0. 0. 0. 0. 0. 0. 0. 0. 0. 0. 0. 0. 0. 0. 0. 0. 0. 0.964298546
      0. 0. 0. 0. 0. 0. 0. 0. 0. 0. 0. 0. 0. 0. 0. 0. 0. 0.0210749004 0.
      0. 0. 0. 0.000298831903 0.00121028011 0.001183582 0.0505372509
      0.267520517 0.123117097 0.0171920061 0.00629860722 0.00160648127
      0.0366543867 0.0538489111 0.0615678169 0.342214495 0.342214495
      0.342214495 0.109194994 0.104391031 0.0616021194 0.0026763021
      0.0011223593 0.00757340388 0.0603124499 0.283781588 0.0687005222
      0.00309800194 0.00626344699 0.000708484557 0.157388583
      0.0937293693 0.125953093 0.342214495 0.342214495 0.339521199
      0.0831567273 0.114607386 0.114052609 0.157076046 0.0801566914
      0.0863322169 0.235309005 0.235309005 0.152294412 0.0572278872
      0.058843255 0.128932923 0.235309005 0.161295995 0.154668882
      0.176162317 0.235309005 0.108834974 0.0540110543 0.0689938813
      0.235309005 0.224093795 0.124296688 0.161282122 0.181163073
      0.235309005 0.132697523 0.0656064078 0.060377527 0.159698427
      0.235309005 0.184325635 0.201314524 0.191385344 0.235309005
      0.110026836 0.081860818 0.135571852 0.212614983 0.276371539
      0.237734437 0.212257564 0.22634387 0.276371539 0.148235738
      0.112468243 0.0928738043 0.276371539 0.0753665939 0.0428129099
      0.0599233471 0.0555231757 0.276371539 0.0427912995 0.0345654823
      0.0131282201 0.0313913077 0.276371539 0.201193109 0.154293835
      0.202786297 0.276371539 0.198350191 0.186075315 0.241084397
      0.22842291 0.0451380387 0.0280865934 0.0258745402 0.0270354059
      0.146097034 0.0619514026 0.0599310733 0.0334494635 0.0271487106 0.
      0. 0. 0. 0.924941123 0. 0. 0. 0. 0. 0. 0. 0. 0. 0. 0. 0. 0. 0. 0.
      0. 0. 0.351347685 0. 0. 0. 0. 0. 0. 0. 0. 0. 0. 0. 0. 0. 0. 0. 0.
      0. 0. 0. 0. 0. 0. 0. 0. 0. 0. 0. 0. 0. 0. 0. 0. 0. 0. 0. 0. 0. 0.
      0. 0. 0. 0. 0. 0. 0. 0. 0. 0. 0. 0. 0. 0. 0. 0. 0. 0. 0. 0. 0. 0.
      0. 0. 0. 0. 0. 0. 0. 0. 0. 0. 0. 0. 0. 0. 0. 0. 0. 0. 0. 0. 0. 0.
      0. 0. 0. 0. 0. 0. 0. 0. 0. 0. 0. 0. 0. 0. 0. 0. 0. 0. 0. 0. 0. 0.
      0. 0. 0. 0. 0. 0. 0. 0. 0. 0. 0. 0. 0. 0. 0. 0. 0. 0. 0. 0. 0. 0.
      0. 0. 0. 0. 0. 0. 0. 0. 0. 0. 0. 0. 0. 0. 0. 0. 0. 0. 0. 0. 0. 0.
      0. 0. 0. 0. 0. 0. 0. 0. 0. 0. 0. 0. 0. 0. 0. 0. 0. 0. 0. 0. 0. 0.
      0. 0. 0. 0. 0. 0. 0. 0. 0. 0. 0. 0. 0. 0. 0. 0. 0. 0. 0. 0. 0. 0.
      0. 0. 0. 0. 0. 0. 0. 0. 0. 0. 0. 0. 0. 0. 0. 0. 0. 0. 0. 0. 0. 0.
      0. 0. 0. 0. 0. 0. 0. 0. 0. 0. 0. 0. 0. 0. 0. 0. 0. 0. 0. 0. 0. 0.
      0. 0. 0. 0. 0. 0. 0. 0. 0. 0. 0. 0. 0. 0. 0. 0. 0. 0. 0. 0. 0. 0.
      0. 0. 0. 0. 0. 0. 0. 0. 0. 0. 0. 0. 0. 0. 0. 0. 0. 0. 0. 0. 0. 0.
      0. 0. 0. 0. 0. 0. 0. 0. 0. 0. 0. 0. 0. 0. 0. 0. 0. 0. 0. 0. 0. 0.
      0. 0. 0. 0. 0. 0. 0. 0. 0. 0. 0. 0. 0. 0. 0. 0. 0. 0. 0. 0. 0. 0.
      0. 0. 0. 0. 0. 0. 0. 0. 0. 0. 0. 0. 0. 0. 0. 0. 0. 0. 0. 0. 0. 0.
      0. 0. 0. 0. 0. 0. 0. 0. 0. 0. 0. 0. 0. 0. 0. 0. 0. 0. 0. 0. 0. 0.
      0. 0. 0. 0. 0. 0. 0. 0. 0. 0. 0. 0. 0. 0. 0. 0. 0. 0. 0. 0. 0. 0.
      0. 0. 0. 0. 0. 0. 0. 0. 0. 0. 0. 0. 0. 0. 0. 0. 0. 0. 0.
      0.010568928 0.00019664815 0.0215634834 0.0546561219 0.295632124
      0.0572879389 0.0227477644 0.0160602499 0.0200900249 0.313659817
      0.0920372456 0.161971524 0.24280262 0.318379015 0.263591915
      0.121973716 0.238664076 0.318379015 0.00926676486 0. 0.00968039036
      0.0123324189 0.126509398 0.0288887098 0.0330332853 0.0200572684
      0.0395064875 0.181698665 0.0392714143 0.0539991409 0.0405459665
      0.318379015 0.0999568254 0.132939562 0.274897695 0.318379015
      0.254358143 0.135192156 0.1335022 0.104115129 0.254358143
      0.117379084 0.0655840561 0.150327608 0.254358143 0.254358143
      0.196429342 0.118888929 0.105594762 0.254358143 0.138052568
      0.126203701 0.168294281 0.254358143 0.226740092 0.0606865659
      0.0334609412 0.0128752161 0.175816804 0.0488584228 0.0492807589
      0.171701044 0.254358143 0.254358143 0.152914062 0.0515883788
      0.0176279917 0.189707473 0.0673610196 0.0560702123 0.0936321169
      0.254358143 0.293629915 0.172535211 0.123706892 0.138736174
      0.293629915 0.228190288 0.29317686 0.224848598 0.293629915
      0.0560689755 0.021824304 0.0390368327 0.0419155695 0.276584089
      0.0881088749 0.106030501 0.0341780968 0.0469608232 0.293629915
      0.179986045 0.12172547 0.0612640604 0.293629915 0.0717516765
      0.0986587256 0.0738603696 0.293629915 0.0939466134 0.0323943011
      0.0554449409 0.0393164083 0.17876704 0.0220738705 0.0315865949
      0.00767489569 0.0421520397 0. 0. 0. 0. 0.769166648 0. 0. 0. 0. 0.
      0. 0. 0. 0. 0. 0. 0. 0. 0. 0. 0. 0. 0.619120061 0. 0. 0. 0. 0. 0.
      0. 0. 0. 0. 0. 0. 0. 0. 0. 0. 0. 0. 0. 0. 0. 0. 0. 0. 0. 0. 0. 0.
      0. 0. 0. 0. 0. 0. 0. 0. 0. 0. 0. 0. 0. 0. 0. 0. 0. 0. 0. 0. 0. 0.
      0. 0. 0. 0. 0. 0. 0. 0. 0. 0. 0. 0. 0. 0. 0. 0. 0. 0. 0. 0. 0. 0.
      0. 0. 0. 0. 0. 0. 0. 0. 0. 0. 0. 0. 0. 0. 0. 0. 0. 0. 0. 0. 0. 0.
      0. 0. 0. 0. 0. 0. 0. 0. 0. 0. 0. 0. 0. 0. 0. 0. 0. 0. 0. 0. 0. 0.
      0. 0. 0. 0. 0. 0. 0. 0. 0. 0. 0. 0. 0. 0. 0. 0. 0. 0. 0. 0. 0. 0.
      0. 0. 0. 0. 0. 0. 0. 0. 0. 0. 0. 0. 0. 0. 0. 0. 0. 0. 0. 0. 0. 0.
      0. 0. 0. 0. 0. 0. 0. 0. 0. 0. 0. 0. 0. 0. 0. 0. 0. 0. 0. 0. 0. 0.
      0. 0. 0. 0. 0. 0. 0. 0. 0. 0. 0. 0. 0. 0. 0. 0. 0. 0. 0. 0. 0. 0.
      0. 0. 0. 0. 0. 0. 0. 0.00204471755 0.00275178137 0.00823434815
      0.0126477852 0.0252871849 0. 0. 0. 0.00204471755 0.689911544
      0.263572752 0.319977283 0.189716786 0.129109681 0. 0. 0.
      0.54012382 0. 0. 0. 0. 0. 0. 0. 0. 0. 0. 0. 0. 0. 0. 0. 0. 0. 0.
      0.49541074 0.0772747993 0.0772797093 0.0327679776 0.0153922075 0.
      0. 0. 0.49541074 0.49541074 0.0075302138 0.00372973992 0. 0. 0. 0.
      0. 0.49541074 0. 0. 0. 0. 0. 0. 0. 0. 0. 0. 0. 0. 0. 0. 0. 0. 0.
      0. 0.49875313 0. 0. 0. 0. 0. 0. 0. 0.49875313 0.49875313 0. 0. 0.
      0. 0. 0. 0. 0.49875313 0. 0. 0. 0. 0. 0. 0. 0. 0. 0. 0. 0. 0. 0.
      0. 0. 0. 0. 0.49875313 0. 0. 0. 0. 0. 0. 0. 0.49875313 0.49875313
      0. 0. 0. 0. 0. 0. 0. 0.49875313 0. 0. 0. 0. 0. 0. 0. 0. 0. 0. 0.
      0. 0. 0. 0. 0. 0. 0. 0.49875313 0. 0. 0. 0. 0. 0. 0. 0.49875313
      0.49875313 0. 0. 0. 0. 0. 0. 0. 0.49875313 0. 0. 0. 0. 0. 0. 0. 0.
      0. 0. 0. 0. 0. 0. 0. 0. 0. 0. 0.49875313 0. 0. 0. 0. 0. 0. 0.
      0.49875313 0.49875313 0. 0. 0. 0. 0. 0. 0. 0.49875313
      0.00658808323 0. 0. 0. 0.013005998 0.0130830687 0.01958929
      0.0136696184 0.0318999514 0.1061083 0.016736282 0. 0.000921320228
      0.0355422981 0.0321201198 0.071979031 0.216427043 0.430776179
      0.430776179 0. 0. 0. 0. 0. 0. 0. 0.430776179 0.430776179
      0.00510939769 0. 0. 0. 0. 0. 0.0012842319 0.430776179 0.246603012
      0.0400735997 0.00505837332 0.00115574966 0.0333104916 0.0119275637
      0.0301255099 0.164766058 0.3580181 0.3580181 0.155120984
      0.0358433165 0.00416596001 0.0349297635 0.00373810111 0.0199292582
      0.0488688387 0.321697205 0.3580181 0.0105674472 0. 0. 0. 0. 0.
      0.00672118133 0.3580181 0.3580181 0.0272863209 0. 0. 0. 0. 0.
      0.0428229757 0.3580181 0.426713705 0.147831142 0.0729245618
      0.025029853 0.0283842087 0.0003164722 0.0121885659 0.0213969629
      0.202978268 0.0736376047 0.0225316845 0.0337828733 0.0194676649
      0.0178704802 0. 0. 0. 0.0285093971 0.426713705 0.0401096791 0. 0.
      0. 0. 0. 0.0620143935 0.426713705 0.426713705 0.00717505021 0. 0.
      0. 0. 0. 0.0285514034 0.426713705 0. 0. 0. 0. 0.00226650061 0. 0.
      0. 0. 0. 0. 0. 0. 0. 0. 0. 0. 0. 0.498751789 0.000415039191 0. 0.
      0. 0. 0. 2.69648499e-05 0.498751789 0.498751789 0. 0. 0. 0. 0. 0.
      0. 0.498751789 0. 0. 0. 0. 0. 0. 0. 0. 0. 0. 0. 0. 0. 0. 0. 0. 0.
      0. 0.49875313 0. 0. 0. 0. 0. 0. 0. 0.49875313 0.49875313 0. 0. 0.
      0. 0. 0. 0. 0.49875313 0. 0. 0. 0. 0. 0. 0. 0. 0. 0. 0. 0. 0. 0.
      0. 0. 0. 0. 0.49875313 0. 0. 0. 0. 0. 0. 0. 0.49875313 0.49875313
      0. 0. 0. 0. 0. 0. 0. 0.49875313 0. 0. 0. 0. 0. 0. 0. 0. 0. 0. 0.
      0. 0. 0. 0. 0. 0. 0. 0.498318911 0. 0. 0. 0. 0. 0. 0. 0.498318911
      0.498318911 0. 0. 0. 0.00125911809 0.00869692583 0.0262268893
      0.0311615169 0.498318911 0. 0. 0. 0. 0. 0. 0. 0. 0. 0. 0. 0. 0. 0.
      0. 0. 0. 0. 0.641769588 0. 0. 0. 0.0533146448 0.0936836451
      0.195354119 0.186222911 0.641769588 0.0925572291 0. 0. 0.
      0.0616581142 0.0728650615 0.108512178 0.0824757963 0.221675307 0.
      0. 0. 0. 0. 0. 0. 0. 0. 0. 0. 0. 0. 0. 0. 0. 0. 0. 0. 0. 0. 0.
      0.829580128 0. 0. 0. 0. 0. 0. 0. 0. 0. 0. 0. 0. 0. 0.000369955524
      0.000820875634 0.00245636352 0.00786046591 0.0431511253 0. 0. 0.
      0.000369955524 0.334428757 0.109009609 0.164922297 0.197739616
      0.560799241 0. 0. 0. 0.163215593 8.53743477e-05 0.000373125309
      0.00111652887 0.00694669504 0.14598687 0. 0. 0. 8.53743477e-05
      0.191738024 0.0746117681 0.132338837 0.206842378 0.573740423 0. 0.
      0. 0.0895061642 0.342923552 0.0552316643 0.0768324733 0.0680704191
      0.186303884 0. 0. 0. 0.328019679 0.342923552 0.00695405155
      0.00827939436 0.0023937251 0.0109803602 0. 0. 0. 0.342923552
      0.274905086 0.040644329 0.0683561414 0.0745901391 0.342923552 0.
      0. 0. 0.207032233 0.342923552 0.00597651023 0.00917332619
      0.00307764672 0.0663702786 0. 0. 0. 0.342923552 0.352929503 0. 0.
      0. 0. 0. 0. 0. 0.352929503 0.352929503 0. 0. 0. 0. 0. 0. 0.
      0.352929503 0.352929503 0. 0. 0. 0. 0. 0. 0. 0.352929503
      0.352929503 0. 0. 0. 0. 0. 0. 0. 0.352929503 0.352929503 0. 0. 0.
      0. 0. 0. 0. 0.352929503 0.352929503 0. 0. 0. 0. 0. 0. 0.
      0.352929503 0.352929503 0. 0. 0. 0. 0. 0. 0. 0.352929503
      0.352929503 0. 0. 0. 0. 0. 0. 0. 0.352929503 0.352929503 0. 0. 0.
      0. 0. 0. 0. 0.352929503 0.352929503 0. 0. 0. 0. 0. 0. 0.
      0.352929503 0.352929503 0. 0. 0. 0. 0. 0. 0. 0.352929503
      0.352929503 0. 0. 0. 0. 0. 0. 0. 0.352929503 0.352862567 0. 0. 0.
      0. 0. 0. 0. 0.352862567 0.352862567 0.00285590277 0. 0.
      0.0030826882 0.000536946289 0.000179740615 0. 0.352862567
      0.352862567 0. 0. 0. 0.000140689473 0. 0. 0. 0.352862567
      0.352862567 0.00907956157 0.00255186856 0.00309613533 0.0152414842
      0.00380242104 0.00352562638 0.00169961725 0.352862567 0.317831695
      0.0481865443 0.0070347758 0.00175531965 0.0129006216 0.00504847616
      0.00105481758 0.0017765119 0.317831695 0.317831695 0.0897717178
      0.0280970261 0.0114333006 0.0284867808 0.0305311456 0.0460402444
      0.0557442456 0.317831695 0.317831695 0.082218729 0.0151320109
      0.0224883612 0.0669973418 0.0470179245 0.0377662964 0.0215125848
      0.31463173 0.317831695 0.17472063 0.10240297 0.105925396
      0.22634685 0.153569177 0.121558264 0.119506709 0.317831695
      0.269266963 0.0402302258 0.0199836958 0.0156995412 0.0322583243
      0.0357762463 0.0545146167 0.068336986 0.269266963 0.269266963
      0.0667270124 0.0801736116 0.0420519114 0.0311600566 0.0209760927
      0.0355576128 0.0973675773 0.269266963 0.269266963 0.0836396441
      0.119503021 0.147023425 0.269266963 0.154226705 0.108533725
      0.128521577 0.269266963 0.269266963 0.123778701 0.200640932
      0.173899785 0.269266963 0.131890729 0.0958195031 0.16691269
      0.269266963 0.29535082 0.0911667347 0.117737405 0.0461709015
      0.0168515947 0.0522642694 0.0353588127 0.125121251 0.29535082
      0.29535082 0.0545398332 0.0421931855 0.00958865229 0.0133387037
      0.0410205126 0.0229873694 0.0710068271 0.29535082 0.29535082
      0.173946917 0.207902506 0.112190381 0.121464536 0.15686056
      0.114105672 0.222485825 0.29535082 0.29535082 0.0931056961
      0.0731813312 0.0195533838 0.0813090131 0.104139052 0.0749369338
      0.131388307 0.29535082 0.352670401 0.0157269575 0.00607923325 0.
      0.002061598 0.000150442356 0.0012978192 0.00630107149 0.352670401
      0.352670401 0. 0. 0. 0. 0. 0. 0. 0.352670401 0.352670401
      0.0217425842 0.00862229336 0. 0.0164804794 0.00666539557
      0.00838537794 0.0142042004 0.352670401 0.352670401 0. 0. 0. 0. 0.
      0. 0. 0.352670401 0.352929503 0. 0. 0. 0. 0. 0. 0. 0.352929503
      0.352929503 0. 0. 0. 0. 0. 0. 0. 0.352929503 0.352929503 0. 0. 0.
      0. 0. 0. 0. 0.352929503 0.352929503 0. 0. 0. 0. 0. 0. 0.
      0.352929503 0.352929503 0. 0. 0. 0. 0. 0. 0. 0.352929503
      0.352929503 0. 0. 0. 0. 0. 0. 0. 0.352929503 0.352929503 0. 0. 0.
      0. 0. 0. 0. 0.352929503 0.352929503 0. 0. 0. 0. 0. 0. 0.
      0.352929503 0.331231534 0. 0. 0. 0. 0. 0. 0. 0.331231534
      0.331231534 0. 0. 0. 0.0662342235 0.0240693744 0.0353140533
      0.0268301833 0.331231534 0.331231534 0. 0. 0. 0. 0. 0. 0.
      0.331231534 0.331231534 0. 0. 0. 0.331231534 0.027146345
      0.0339628682 0.0209275726 0.331231534 0.341104567 0. 0. 0.
      0.311754942 0.111210652 0.115836687 0.0817393214 0.415245026
      0.0227038991 0. 0. 0. 0.209154665 0.0691013113 0.0511185899
      0.0323948823 0.0678131506 0.210678264 0. 0. 0. 0.415245026
      0.119915545 0.100939564 0.0594246723 0.307174891 0.00977709517 0.
      0. 0. 0.415245026 0.0709015429 0.0390903726 0.0214388147
      0.0361486375 0. 0. 0. 0. 0.325994998 0. 0. 0. 0. 0. 0. 0. 0. 0. 0.
      0. 0. 0. 0. 0. 0. 0. 0.93759954 0. 0. 0. 0. 0. 0. 0. 0. 0. 0. 0.
      0. 0. 0. 0. 0. 0.000221432754 0.116177149 0. 0. 0. 0.
      0.00185703603 0.0014191817 0.00424671639 0.0141007034 0.693210959
      0. 0. 0. 0.00185703603 0. 0. 0. 0. 0.13303183 0.000353846961 0. 0.
      0. 0.00296753529 0. 0. 0. 0.693210959 0.0225328375 0.00678623421
      0.00226784591 0.00296753529 0.0131919663 0.00272308895
      0.00814848952 0.0148893651 0.680482566 0. 0. 0. 0.0131919663
      0.0290721357 0.000628405192 0.0018804206 0.000836319872 0.15998961
      0. 0. 0. 0.0290721357 0.0210807044 0. 0. 0. 0.680482566
      0.0237931181 0.0130212493 0.00435148412 0.0210807044 0.0464571416
      0. 0. 0. 0.182172447 0.00133643532 0.00300490391 0.00100418867
      0.0464571416 0.245882988 0. 0. 0. 0. 0. 0. 0. 0.245882988
      0.281764209 0. 0. 0. 0. 0. 0. 0. 0.281764209 0.392919868 0. 0. 0.
      0. 0. 0. 0. 0.392919868 0.450257897 0. 0. 0. 0. 0. 0. 0.
      0.450257897 0.245882988 0. 0. 0. 0. 0. 0. 0. 0.245882988
      0.281764209 0. 0. 0. 0. 0. 0. 0. 0.281764209 0.392919868 0. 0. 0.
      0. 0. 0. 0. 0.392919868 0.450257897 0. 0. 0. 0. 0. 0. 0.
      0.450257897 0.245882988 0. 0. 0. 0. 0. 0. 0. 0.245882988
      0.281764209 0. 0. 0. 0. 0. 0. 0. 0.281764209 0.392919868 0. 0. 0.
      0. 0. 0. 0. 0.392919868 0.450257897 0. 0. 0. 0. 0. 0. 0.
      0.450257897 0.0960558653 0. 0. 0. 0.0133795561 0. 0. 0.
      0.0960558653 0.247910991 0.122732714 0.0830229074 0.0730510801
      0.41246596 0.0266276225 0.102090955 0.0691369399 0.304001659
      0.152780861 0. 0. 0. 0.017202286 0. 0. 0. 0.154221967 0.348508537
      0.117768519 0.12504147 0.0906631052 0.41246596 0.0948524401
      0.162194446 0.166950613 0.41246596 0.0969195366 0.0644469708
      0.0320060253 0.0780054331 0.191288739 0.08978986 0.09186849
      0.0622336678 0.1165139 0.161008254 0.132866293 0.158151388
      0.252732217 0.255228579 0.255228579 0.134311438 0.113817208
      0.133334428 0.159862399 0.106657751 0.122737609 0.10740795
      0.227140933 0.103586644 0.0799436569 0.0826895237 0.149249509
      0.255228579 0.255228579 0.255228579 0.255228579 0.255228579
      0.196576029 0.101306304 0.125449032 0.207419842 0.0914089084
      0.108970664 0.198743463 0.251271427 0.251271427 0.155024931
      0.0591415986 0.066167295 0.0578230992 0.109683193 0.109945431
      0.166110203 0.179921299 0.251271427 0.186480135 0.0987915322
      0.148350328 0.144129068 0.251271427 0.251271427 0.208524451
      0.227444723 0.217340335 0.0603641011 0.0314624645 0.0449699089
      0.202303663 0.251271427 0.205418721 0.126693815 0.0964026526
      0.0942103565 0.0835987926 0.0570590235 0.111592993 0.251271427
      0.120553412 0.127319962 0.123122007 0.0735478327 0.248322815
      0.217538491 0.190642476 0.252435416 0.252435416 0.0323743671
      0.0675207525 0.0510552973 0.0327313766 0.214300007 0.105433211
      0.111490972 0.142603368 0.125391155 0.252435416 0.188894778
      0.125850439 0.0467632078 0.223091409 0.252435416 0.192044199
      0.252435416 0.252435416 0.0703519061 0.0862006545 0.0598716363
      0.0361388065 0.252435416 0.217016995 0.114397049 0.0866847187
      0.120948017 0.161015913 0.0751993433 0.038920328 0.0515600257
      0.426439643 0.126399174 0.101484597 0.0605807342 0.159469008
      0.199498802 0. 0. 0. 0. 0. 0. 0. 0.199498802 0.290519029
      0.0832124725 0.0543104634 0.069915697 0.49555707 0.175309747
      0.0432410985 0.00486397697 0.248672381 0.318798184 0. 0. 0. 0. 0.
      0. 0. 0.318798184 0.245882988 0. 0. 0. 0. 0. 0. 0. 0.245882988
      0.281764209 0. 0. 0. 0. 0. 0. 0. 0.281764209 0.392919868 0. 0. 0.
      0. 0. 0. 0. 0.392919868 0.450257897 0. 0. 0. 0. 0. 0. 0.
      0.450257897 0.245882988 0. 0. 0. 0. 0. 0. 0. 0.245882988
      0.281764209 0. 0. 0. 0. 0. 0. 0. 0.281764209 0.392919868 0. 0. 0.
      0. 0. 0. 0. 0.392919868 0.450257897 0. 0. 0. 0. 0. 0. 0.
      0.450257897 0.0627511144 0. 0. 0. 0. 0. 0. 0. 0.0627511144
      0.0612100996 0. 0. 0. 0.684607446 0.0133083882 0.0117692621
      0.00393308047 0.0612100996 0.100275993 0. 0. 0. 0. 0. 0. 0.
      0.100275993 0.0978134573 0.00628503924 0.0188072324 0.0212667361
      0.684607446 0. 0. 0. 0.0978134573 0.00525366422 0. 0. 0.
      0.498586476 0.00922823604 0.00459542545 0.00153571041
      0.00525366422 0.000133983296 0. 0. 0. 0.498586476 0.00473752385
      0.00106048281 0.000354394695 0.000133983296 0.00839533098
      0.00245405594 0.00734347105 0.0147466762 0.498586476 0. 0. 0.
      0.00839533098 0.000214104701 0.00056632061 0.00169464725
      0.00757054007 0.498586476 0. 0. 0. 0.000214104701 0. 0. 0. 0.
      0.65385741 0. 0. 0. 0. 0. 0. 0. 0. 0. 0. 0. 0. 0. 0. 0. 0. 0.
      0.749273598 0. 0. 0. 0. 0. 0. 0. 0. 0. 0. 0. 0. 0. 0.000107827967
      0. 0. 0. 0.131632224 0.00760035543 0.00132473989 0.000442705903
      0.000107827967 0.102143161 0. 0. 0. 0.52711457 0.221478179
      0.145977393 0.0838174298 0.219217315 0.000467254577 0. 0. 0.
      0.0443809852 0.00865048356 0.00291442778 0.000973952992
      0.000467254577 0.192035943 0. 0. 0. 0.52711457 0.213347256
      0.184346363 0.124241665 0.389748603 0.217258304 0. 0. 0.
      0.339494377 0.0739893541 0.0693837404 0.0421551764 0.289348871
      0.339494377 0. 0. 0. 0.0537584163 0.00300148013 0.00908803754
      0.00609160727 0.339494377 0.339494377 0. 0. 0. 0.171297848
      0.0679867715 0.0789696574 0.0581477992 0.339494377 0.339494377 0.
      0. 0. 0.00984742306 0.0023344846 0.0082567269 0.007177833
      0.339494377 0.352929503 0. 0. 0. 0. 0. 0. 0. 0.352929503
      0.352929503 0. 0. 0. 0. 0. 0. 0. 0.352929503 0.352929503 0. 0. 0.
      0. 0. 0. 0. 0.352929503 0.352929503 0. 0. 0. 0. 0. 0. 0.
      0.352929503 0.352929503 0. 0. 0. 0. 0. 0. 0. 0.352929503
      0.352929503 0. 0. 0. 0. 0. 0. 0. 0.352929503 0.352929503 0. 0. 0.
      0. 0. 0. 0. 0.352929503 0.352929503 0. 0. 0. 0. 0. 0. 0.
      0.352929503 0.352929503 0. 0. 0. 0. 0. 0. 0. 0.352929503
      0.352929503 0. 0. 0. 0. 0. 0. 0. 0.352929503 0.352929503 0. 0. 0.
      0. 0. 0. 0. 0.352929503 0.352929503 0. 0. 0. 0. 0. 0. 0.
      0.352929503 0.352341652 0. 0. 0. 0.000326187728 0. 0. 0.
      0.352341652 0.352341652 0.00441111485 0.00941716507 0.00782357901
      0.0417536087 0.014079161 0.0110097686 0.0269795489 0.352341652
      0.352341652 0. 0. 0. 0. 0. 0. 0. 0.352341652 0.352341652
      0.000733361638 0.00191678456 0.00209106016 0.0070412755
      0.00409876183 0.00491858926 0.0162261333 0.352341652 0.26932627
      0.0539243557 0.064256236 0.0400037058 0.0684116334 0.0403114408
      0.0432216227 0.070744805 0.334260166 0.334260166 0.230901316
      0.16153051 0.0877525657 0.0827596039 0.038009353 0.0564046465
      0.0926806554 0.334260166 0.334260166 0.00962338224 0.00883097574
      0.00941149425 0.0137468344 0.00968241226 0.0271658953 0.0428900532
      0.334260166 0.334260166 0.0796126053 0.0226080716 0.0113655413
      0.00831174199 0.00597753236 0.0290728472 0.0444810279 0.334260166
      0.339785397 0.191544801 0.0620318949 0.0410523601 0.0328577496
      0.00453059189 0.011826477 0.0272949431 0.339785397 0.339785397
      0.085127987 0.0273157507 0.010970816 0.00788234547 0.0230768751
      0.0272147749 0.10027606 0.339785397 0.339785397 0.0673506409
      0.00884470996 0.00235744426 0.000310983509 0. 0.00297113368
      0.00913620647 0.339785397 0.339785397 0.0173616223 0.00338629098
      6.44606043e-05 0.000748769089 0.00590249291 0.00793818478
      0.0643199161 0.339785397 0.336468041 0.10572017 0.0657834262
      0.00842167065 0.0888962597 0.12913458 0.0777658448 0.111446857
      0.336468041 0.336468041 0.076207839 0.0510125943 0.00324914698
      0.132670105 0.10892567 0.0367591903 0.0123090604 0.301290274
      0.336468041 0.0524966531 0.0330751985 0. 0.0211387761 0.0265102629
      0.0180096459 0.0661312789 0.336468041 0.336468041 0.0541842729
      0.0351791382 0. 0.0325628221 0.019782884 0.00642029801
      0.00358464872 0.336468041 0.352685213 0.0109816836 0.00630709995
      0.000798940193 0.0316355154 0.00860076863 0.00050413073 0.
      0.352685213 0.352685213 0. 0. 0. 0. 0. 0. 0. 0.352685213
      0.352685213 0.00813239627 0.00448477827 0. 0.00761299022
      0.00101790007 0. 0. 0.352685213 0.352685213 0. 0. 0. 0. 0. 0. 0.
      0.352685213 0.352929503 0. 0. 0. 0. 0. 0. 0. 0.352929503
      0.352929503 0. 0. 0. 0. 0. 0. 0. 0.352929503 0.352929503 0. 0. 0.
      0. 0. 0. 0. 0.352929503 0.352929503 0. 0. 0. 0. 0. 0. 0.
      0.352929503 0.352929503 0. 0. 0. 0. 0. 0. 0. 0.352929503
      0.352929503 0. 0. 0. 0. 0. 0. 0. 0.352929503 0.352929503 0. 0. 0.
      0. 0. 0. 0. 0.352929503 0.352929503 0. 0. 0. 0. 0. 0. 0.
      0.352929503 0.337166756 0. 0. 0. 0. 0. 0. 0. 0.337166756
      0.337166756 0.0209390167 0.0331807435 0.0260694362 0.281140506 0.
      0. 0. 0.337166756 0.337166756 0. 0. 0. 0. 0. 0. 0. 0.337166756
      0.337166756 0.0272430573 0.0349040292 0.0232563913 0.0584781729 0.
      0. 0. 0.337166756 0.341832459 0.0651061162 0.108319238 0.1257063
      0.385283321 0. 0. 0. 0.233665273 0.0409900099 0.0237625893
      0.0426104888 0.0747625604 0.385283321 0. 0. 0. 0.0112452889
      0.385283321 0.09090776 0.125944972 0.11742083 0.303591341 0. 0. 0.
      0.385283321 0.0781987011 0.0364091545 0.0564632341 0.0734314099
      0.206282929 0. 0. 0. 0.0268959366 0. 0. 0. 0. 0.921082616 0. 0. 0.
      0. 0. 0. 0. 0. 0. 0. 0. 0. 0. 0. 0. 0. 0. 0.367314368 0. 0. 0. 0.
      0. 0. 0. 0. 0. 0. 0. 0. 0.</_>
    <_>
      0. 0. 0. 0. 0. 0. 0. 0. 0. 0. 0. 0. 0. 0. 0. 0. 0. 0. 0. 0. 0. 0.
      0. 0. 0. 0. 0. 0. 0. 0. 0. 0. 0. 0. 0. 0. 0. 0. 0. 0. 0. 0. 0. 0.
      0. 0. 0. 0. 0. 0. 0. 0. 0. 0. 0. 0. 0. 0. 0. 0. 0. 0. 0.
      0.31981799 0. 0. 0. 0. 0. 0. 0. 0.31981799 0. 0. 0. 0. 0. 0. 0. 0.
      0. 0. 0. 0. 0. 0. 0. 0. 0. 0. 0.0791461393 0.0326370895 0. 0. 0.
      0. 0. 0. 0.0318525247 0.796911597 0.561812043 0. 0. 0. 0. 0. 0.
      0.181664914 0. 0. 0. 0. 0. 0. 0. 0. 0. 0.000716029201 0. 0. 0. 0.
      0. 0. 0. 0.000716029201 0.470662653 0.274558216 0. 0. 0. 0. 0. 0.
      0.18272531 0.470662653 0.470662653 0.0206510741 0. 0. 0. 0.
      0.00272146426 0.470662653 0.0028925885 0. 0. 0. 0. 0. 0. 0.
      0.0028925885 0.00889743399 0. 0. 0. 0. 0. 0. 0. 0.00889743399
      0.438052952 0.387881547 0.0306997336 0. 0. 0. 0. 0.00221761619
      0.438052952 0.438052952 0.276022822 0.0168431345 0. 0. 0.
      0.00250434852 0.0031131967 0.438052952 0.00822479185
      0.000241586822 0. 0. 0. 0. 0. 0. 0.00733569358 0.0303916223
      0.0041549569 0. 0. 0. 0. 0. 0. 0.0168940127 0.455781937
      0.0483368002 0.00022891922 0. 0. 0. 0.00187658938 0.00227410928
      0.455781937 0.455781937 0.400951892 0.00285465131 0.00377871632 0.
      0. 0.000125105958 0.00455602584 0.455781937 0.0440538153
      0.00248950184 0. 0. 0. 0. 0. 0. 0.033722803 0.0554392859
      5.83637557e-05 0. 0. 0. 0. 0. 0. 0.0542304888 0.476695061
      0.274953932 0.00429864367 0.00467126444 0. 0.00139629655
      0.00232103048 0.0260821115 0.476695061 0.476695061 0.0124403778
      0.0019555348 0.00158799766 0. 0.00179523858 0.00298418198
      0.0262006149 0.476695061 0.0487534106 0. 0. 0. 0. 0. 0. 0.
      0.0483795628 0.0555446595 0. 0. 0. 0. 0. 0. 0. 0.0559185296
      0.496011704 0. 0. 0. 0. 0.000246848096 0.000410329609
      0.00241083559 0.496011704 0.496011704 0.000220414178 0. 0. 0. 0.
      0. 0. 0.496011704 0.0478744805 0. 0. 0. 0. 0. 0. 0. 0.0483253486
      0.042864196 0. 0. 0. 0. 0. 0. 0.00223458535 0.0535427853
      0.478541136 0.0208380837 0.00315921311 0. 0. 0.00155030005
      0.000647366571 0.00117460894 0.478541136 0.478541136 0.0348022953
      0.00406184513 0. 0. 0.006433242 0.00250610081 0.261062235
      0.478541136 0.0183360465 0. 0. 0. 0. 0. 0. 0.00367620867
      0.0316340029 0.00893751346 0. 0. 0. 0. 0. 0. 0.000724969315
      0.011061945 0.45985651 0.00754309772 0.000633409014 0. 0.
      0.00435968675 0.00161279005 0.373907894 0.45985651 0.45985651
      0.00708734198 0.00319008832 0.000534819847 0. 0.000343189866
      0.00211677863 0.0896102935 0.45985651 0.00803246628 0. 0. 0. 0. 0.
      0. 0. 0.00803246628 0.00222525187 0. 0. 0. 0. 0. 0. 0.
      0.00222525187 0.448163807 0.00938733853 0.00478980783
      0.00190987717 0. 0.000244310446 0.00805574842 0.300744444
      0.448163807 0.344038039 0.00061824359 0.000645316555
      0.000861166976 0. 5.63793328e-05 0.00495681167 0.428738892
      0.448163807 9.17711877e-05 0. 0. 0. 0. 0. 0. 0. 9.17711877e-05 0.
      0. 0. 0. 0. 0. 0. 0. 0. 0.436611384 0. 0. 0. 0. 0. 0. 0.441667736
      0.469128281 0.286399096 0. 0. 0. 0. 0. 0. 0.295680851 0.469128281
      0. 0. 0. 0. 0. 0. 0. 0. 0. 0. 0. 0. 0. 0. 0. 0. 0. 0. 0.247868031
      0. 0. 0. 0. 0. 0. 0.561396599 0.757577062 0.075450547 0. 0. 0. 0.
      0. 0. 0.0531163923 0.18274793 0. 0. 0. 0. 0. 0. 0. 0. 0. 0. 0. 0.
      0. 0. 0. 0. 0. 0. 0.616249621 0. 0. 0. 0. 0. 0. 0. 0.616249621 0.
      0. 0. 0. 0. 0. 0. 0. 0. 0. 0. 0. 0. 0. 0. 0. 0. 0. 0. 0. 0. 0. 0.
      0. 0. 0. 0. 0. 0. 0. 0. 0. 0. 0. 0. 0. 0. 0. 0. 0. 0. 0. 0. 0. 0.
      0. 0. 0. 0. 0. 0. 0. 0. 0. 0.00980977528 0.00865526125
      0.00192315097 0. 0. 0. 0. 0. 0.00489944359 0.00973135885
      0.0727941617 0.0539983287 0. 0. 0. 0. 0. 0.00313764601 0.241895407
      0.680058479 0.680058479 0.00268850825 0.000228748075 0. 0. 0.
      0.0348273888 0.0289835259 0.018361453 0.000556037412 0. 0. 0. 0.
      0. 0.0063908617 0.176033199 0.120516919 0.000131133565 0. 0. 0. 0.
      0. 0.0284558181 0.37100789 0.468614727 0.335386962 0.00209416123
      0.00017817886 0. 0. 0.000258825807 0.022983795 0.468614727
      0.468614727 0.128366455 0.00162879226 0.000138583564
      0.000743323588 0.00316191674 0.00435415888 0.147668466 0.19544445
      0.221353427 0.000360879261 0. 0. 0. 0. 0. 0.0158414952 0.386983573
      0.386983573 0.00710484339 0.000249225443 0. 0. 0.000225281809
      0.000903533539 0.0351840705 0.386983573 0.386983573 0.00138243416
      0. 0. 0.000451069238 0.00191873836 0.0027306499 0.0769549683
      0.386983573 0.386983573 0.0173960086 0.00107997691 0.
      3.00712818e-05 0.00110413716 0.00435820222 0.0509963296
      0.322851628 0.322851628 0.00889636111 0.000671638059 0. 0.
      0.000675813062 0.00284372643 0.138035923 0.322851628 0.322851628
      0.0163842477 0.000573198311 0. 0. 0.000787819095 0.00673212903
      0.322851628 0.322851628 0.322851628 0.0210019164 0.00198569219 0.
      0. 0.00224400591 0.00961794332 0.128715992 0.322851628 0.262017339
      0.0186684038 0.00129490893 0. 0. 0.00190794445 0.0117366612
      0.239159077 0.34751597 0.34751597 0.0301050469 8.78978608e-05 0.
      0. 0.000183556171 0.00774255767 0.34751597 0.34751597 0.285446674
      0.0149584031 0. 0. 0. 0.00520366104 0.00638468051 0.34751597
      0.311070085 0.186901674 0.0155660873 0.000193375294 0. 0.
      0.000403823593 0.00850442331 0.234861806 0.286978275 0.120332934
      0.00566716073 0. 6.71491289e-05 0. 0.00404729182 0.00493347505
      0.16084896 0.415762812 0.0700670779 0.000729481108 0. 0. 0.
      0.00597999757 0.00602130406 0.415762812 0.415762812 0.34265101
      0.00537975226 0.0073034633 0. 0. 0.00039866654 0.00681617437
      0.415762812 0.251774073 0.0287508555 0.00209347135 0.000888843846
      0.0016213624 0.00067412568 0.00466448162 0.00524360966 0.161217749
      0.269557536 0.0715637207 0.0097757997 0.0126982238 0.00678873528
      0.0127651161 0.00488419179 0.0288280267 0.111903884 0.420649916
      0.305484474 0.0105324024 0.0115363002 0. 0.00344833825
      0.00573208975 0.0413811691 0.420649916 0.420649916 0.0153433708
      0.00490785576 0.00392176816 0. 0.00443357741 0.00736982981
      0.0408133566 0.420649916 0.200430304 0.111313596 0.0149669666
      0.0192960333 0.00395245105 0.0130400611 0.00834770408 0.048532363
      0.127144009 0.249189496 0.0466089062 0.00844643172 0.00889880117
      0.000133838184 0.00260188826 0.00416147988 0.0189648196
      0.232245952 0.42937693 4.50805455e-05 1.20090235e-05 0. 0.
      0.000601092994 0.000999182463 0.00381878926 0.42937693 0.42937693
      0.000536724634 0. 0. 0. 0. 0. 0. 0.42937693 0.23895368
      0.00286836526 0.00018013535 0. 0. 0.000273224083 0.000454173831
      0.00102805556 0.231252924 0.27138412 0.000243965711 0. 0. 0. 0. 0.
      0. 0.272030652 0.415086508 0.0323567726 0.00767938793 0. 0.
      0.00376845547 0.00159941067 0.00227783946 0.415086508 0.415086508
      0.0533580966 0.00987349916 0. 0. 0.015637869 0.00620359834
      0.290330857 0.415086508 0.234597355 0.00850870647 0.00351287681 0.
      0. 0.00211053668 0.00150820392 0.00943140592 0.219582379
      0.184794053 0.0181303918 0.00762228481 0. 0.00188555242
      0.0140140112 0.0120876897 0.114360295 0.258119911 0.412339449
      0.00918338448 0.00121882476 0. 0. 0.00838904362 0.00314089144
      0.322067261 0.412339449 0.412339449 0.0138129517 0.0101206172
      0.00169672631 0. 0.000798941008 0.00567214983 0.0969097242
      0.412339449 0.105475537 0.00694623543 0.00696964329 0.00145926967
      0.00631381292 0.0121969339 0.0117375907 0.0989969522 0.262776256
      0.198797196 0.00743080536 0.011846194 0.00319587952 0.00457898248
      0.00532694673 0.00926148426 0.0373112634 0.265548944 0.367065758
      0.0121094733 0.0103223678 0.0039767432 0. 0.000508702709
      0.0130841127 0.273965091 0.367065758 0.323020875 0.00245048106
      0.00657926593 0.00179312029 0. 0.000117392941 0.0074514132
      0.367065758 0.367065758 0.143802956 0.00571455667 0.00830315333
      0.00331548974 0.000271460973 0.000774707354 0.00849298295
      0.0963099599 0.219038665 0.151481152 0.00253572734 0.00777655281
      0.00139464915 0. 9.1305621e-05 0.00436570914 0.203827962
      0.367065758 0.272306293 0.00296762073 0.00320879393 0.
      0.00025035537 0.00057024241 0.00202893768 0.295587033 0.338109732
      0.215575308 0.00295243762 0.000636679877 0. 0.000550781726
      0.00125453318 0.00879206415 0.338109732 0.338109732 0.18375209
      0.00672156969 0.00453875167 0. 0.000550781726 0.00125453318
      0.00272814115 0.191414773 0.338109732 0.178569645 0.00924819708
      0.00211332925 0. 0.00121171994 0.00275997305 0.0118219443
      0.338109732 0.338109732 0.064017579 0.000688053202 0.000322962413
      0. 0.000132708796 0.000403578568 0.00397950038 0.330732554
      0.369795918 0.0408853777 0.000155790694 0.000191002036 0.
      1.51125232e-05 0.000164669633 0.00175158551 0.271298289 0.32781446
      0.0993922129 0.00558727141 0.00467207562 0.00126081635
      0.000548170472 0.00252725091 0.00778936036 0.369795918 0.369795918
      0.0784853026 0.00351505564 0.00713900151 0.00327324378
      0.000459354545 0.00248490833 0.00896943919 0.369795918 0.369795918
      0.0255570691 0. 0. 0. 3.98044431e-05 3.54996482e-05 0.00102204806
      0.19410117 0.185971543 0.0108754206 0. 0. 0. 0.000548197073 0.
      0.00173106545 0.0363781825 0.048462335 0.0628706738 0.00465723407
      0.00625372538 0.00170975167 0.000679764082 0.00442252262
      0.121358506 0.439399928 0.439399928 0.0639148876 0.00278980425
      0.00273773656 0.00017536922 0.00822295528 0.0212225094 0.351041913
      0.439399928 0.439399928 0.00252885325 0. 0. 0. 0.0015353614 0.
      0.00294062891 0.0180861875 0.00823432952 0. 0. 0. 0. 0. 0. 0. 0.
      0. 0.169742301 0. 0. 0. 0.0304344259 0.108996481 0.544530809
      0.544530809 0.544530809 0.0246546324 0. 0. 0. 0.00951943453
      0.0546334162 0.182109416 0.143043563 0.0753725469 0.0199767333
      0.0733351931 0.159090176 0.0282234754 0.00395258376 0. 0.
      6.96155912e-05 0.00480797142 0.0684747025 0.363382429 0.363382429
      0.0459061265 0.00328548648 0.000471274427 0.000592376047
      0.00243328558 0.013019016 0.0732015297 0.26836431 0.363382429
      0.357188195 0.119904436 0.0420624912 0.00189035397 0.000301667576
      0.0098627694 0.0800103247 0.363382429 0.363382429 0.255583674
      0.0612803176 0.01442244 0.00212110928 0.00643569184 0.0169680193
      0.248381421 0.380650371 0.380650371 0.0200220048 0.00223555393
      0.0014904486 0.00123063708 0.00655101426 0.0228374638 0.380650371
      0.380650371 0.179867685 0.00702510541 0.001366943 0.00390993245
      0.00533254771 0.00994762871 0.0724018067 0.0547356419 0.380650371
      0.380650371 0.0466657542 0.00871356018 0.00428600842 0.00228753174
      0.0104158456 0.0229888707 0.0406674035 0.116656713 0.0682613999
      0.00819548592 0.00584695907 0.0131354285 0.00589524629
      0.00787714869 0.0130422795 0.465688914 0.465688914 0.0219796039
      0.00684588077 0.000996362069 0.0102161551 0.013902924 0.0172598585
      0.174722239 0.465688914 0.465688914 0.0228976365 0.00619785674
      0.000385957974 0.00307048764 0.0062727225 0.0131126959
      0.0688703358 0.101972044 0.132300064 0.0914494321 0.0244296901
      0.0198420808 0.0568919033 0.0240883008 0.0154791195 0.0434368663
      0.0990927517 0.0953188539 0.0655764565 0.0309411678 0.0352000594
      0.0745940134 0.0465665162 0.0579785109 0.104921222 0.371185392
      0.3081429 0.028930746 0.00566332042 0.00107684452 0.000710716064
      0.00622129021 0.0224425364 0.111820601 0.207209259 0.129202768
      0.0190756563 0.00395842642 0.000489474798 0. 0.00271383161
      0.0135755306 0.111718073 0.141031101 0.388498276 0.145071954
      0.069747664 0.0626518056 0.0890949965 0.0714518875 0.0774504095
      0.124174677 0.443583161 0.443583161 0.194516554 0.0495947152
      0.0317071825 0.0246754587 0.020558266 0.00961397495 0.0718663856
      0.184956357 0.0812849402 0.00588347297 0.000412829366 0.
      0.00290879491 0.00565425912 0.0163512044 0.100427419 0.279387355
      0.103860341 0.0199619308 0.00111624983 0.00136581203 0.00888218079
      0.0168814249 0.0349391475 0.182976559 0.410223812 0.410223812
      0.0243016519 0.0047721318 0.0027671128 0.0133553892 0.0103356671
      0.0282524899 0.186117679 0.410223812 0.311574072 0.0291931927
      0.00774903363 0.0626113489 0.0375761427 0.0418935828 0.0760947391
      0.410223812 0.150442213 0.0391529463 0.0172602907 0.0186923929
      0.0576591678 0.0335544981 0.0187471248 0.0385909267 0.120088227
      0.183476806 0.0701809525 0.0692678839 0.0983031094 0.157122895
      0.134647191 0.0407551192 0.123452842 0.150686353 0.380350828
      0.0808639824 0.0218623932 0.0511386469 0.400132656 0.127787352
      0.0689139515 0.0758663863 0.293921888 0.232824653 0.0464907512
      0.124903165 0.216279417 0.400132656 0.225299269 0.0666577891
      0.0838470832 0.215141058 0.332574964 0.188801706 0.0533045344
      0.0653922185 0.052021414 0.0696129501 0.0266938768 0.115235202
      0.209339246 0.332574964 0.126465902 0.0167104118 0.0163452271
      0.000295046222 0.00251873513 0.00256649731 0.0260654055
      0.332574964 0.332574964 0.0681764483 0.0750686824 0.0964429826
      0.332574964 0.0670901686 0.0169474315 0.0388544239 0.26454711
      0.332574964 0.0327916704 0.0041703661 0.00403326843 0.00127716444
      0.00154002069 0.00117819814 0.00945555791 0.332574964 0.352923244
      0.00586782349 0.00019188982 0. 0. 0. 0. 0. 0.352923244 0.352923244
      0. 0. 0. 0. 0. 0. 0. 0.352923244 0.352923244 0.000926754263 0. 0.
      0. 0. 0. 0. 0.352923244 0.352923244 0. 0. 0. 0. 0. 0. 0.
      0.352923244 0.343991011 0.000927098445 0.000183539858 0. 0.
      0.000731952721 0.00146030367 0.023132246 0.343991011 0.343991011
      0.0214708447 0.0117890611 0.00216151448 0.015556599 0.019264387
      0.0230825134 0.20828256 0.343991011 0.343991011 0.000721076503
      0.000142753226 0. 0. 4.87968464e-05 0.000185698154 0.00562090892
      0.343991011 0.343991011 0.0147939231 0.00655769557 0.00277909031
      0.012099578 0.00763523486 0.00626559183 0.0608935282 0.343991011
      0.222755 0.0304682348 0.0354426131 0.0137589304 0.0603399239
      0.0654197112 0.0441605411 0.241285592 0.363977909 0.195932001
      0.00669490127 0.021105811 0.0114286561 0.0365406573 0.051012326
      0.0358094126 0.0945074037 0.358035743 0.363977909 0.0217379872
      0.0187020078 0.0111222947 0.0443001054 0.0449408032 0.0193682071
      0.0902737677 0.363977909 0.363977909 0.00881713629 0.0108169392
      0.0132654412 0.0312828496 0.0398555025 0.0707345083 0.105525479
      0.363977909 0.108477294 0.0010793067 0.000729471096 0.00120933994
      0.00150906341 0.00539737334 0.0476862229 0.0630723014 0.235546067
      0.0656848252 0.00695738383 0.00300369388 0. 0. 0.00124445185
      0.0378830321 0.0464320779 0.113258615 0.395815611 0.035527803
      0.0256171245 0.0299667846 0.0168402679 0.0105575342 0.248902783
      0.246126935 0.428831428 0.428831428 0.0504221879 0.0291971732
      0.0203932188 0.00673830183 0.00515533099 0.17953445 0.176553547
      0.428831428 0.0806596056 0.00821377896 0.00239454443 0.
      0.000419479591 0.00108385598 0.00311086141 0.0283158701
      0.110553548 0.103303939 0.0104921125 0.00270240963 0.
      0.000922855106 0.00218590745 0.00602794625 0.13894172 0.300983012
      0.450552464 0.0104387626 0.00324415532 0. 0. 0.000282466412
      0.00536831375 0.0191305764 0.450552464 0.450552464 0.138231084
      0.103334971 0.053053569 0. 0.0231931191 0.0316657536 0.0922667459
      0.450552464 0.0789933801 0.00828240067 0.00819635764 0.00334391254
      0.000721583143 0.00362348324 0.00556615787 0.236743808 0.372892469
      0.0675101355 0.011313145 0.0194564201 0.009503996 0.000981730642
      0.0042293258 0.0135332737 0.372892469 0.372892469 0.237367362
      0.20313862 0.172113493 0.0663904324 1.86992111e-05 0.0302722026
      0.0324389003 0.168229997 0.352173567 0.0811315328 0.0993071198
      0.069322139 0.0191398691 4.1138268e-05 0.00770867337 0.00867821649
      0.372892469 0.254080862 0.0264270976 0.010766712 0.0120498426
      0.00267666997 0.000757010363 0.00468262751 0.157999143 0.369744956
      0.369744956 0.0630847216 0.0071564503 0.00665003341 0.000689062814
      0.00992998481 0.0524797849 0.369744956 0.369744956 0.369744956
      0.0155454185 0.00590639981 0.00499743922 0.00125644507
      0.000476704357 0.00140054408 0.0406544134 0.163664982 0.0961826444
      0.0328238271 0.00500027975 0.00312583474 0.00162757444
      0.00943852123 0.0421161726 0.298332512 0.299106419 0.245821387
      0.0330665037 0.00022525269 0. 0. 0.007929896 0.0758202225
      0.306130975 0.306130975 0.282877862 0.00685178256 0. 0. 0.
      0.0159577392 0.0544423945 0.205882803 0.26415363 0.0308359116
      0.0135028316 0.00209576264 0.000765715784 0.00411693705
      0.0502978005 0.167173326 0.306130975 0.306130975 0.111774758
      0.00568695692 0.00168064819 0.000984491664 0.0120318765
      0.306130975 0.306130975 0.306130975 0.306130975 0.0234513227
      0.0263582971 0.118262641 0.216199279 0.283037335 0.283037335
      0.2532444 0.0106442869 0.00155568973 0.0035494559 0.0215548407
      0.138374269 0.283037335 0.238125831 0.182024062 0.110630594
      0.00801155344 0.00418061344 0.0064310953 0.00239161355
      0.00114045735 0.0101262266 0.151261061 0.283037335 0.283037335
      0.207952261 0.161941946 0.0111468593 0.00598572241 0.00279624062
      0.00896809436 0.0827559233 0.237985402 0.283037335 0.264786929
      0.206400633 0.0104900664 0.0367624536 0.229278833 0.463976711
      0.13833341 0.0760160536 0.0383213125 0.016111169 0.0199253112
      0.0350248814 0.0442431085 0.0598655008 0.0456432812 0.0130180018
      0.0240386184 0.0457121283 0.0172766857 0.0296656787 0.0452459306
      0.0403367765 0.0185342189 0.0183844157 0.0526985936 0.107322499
      0.244279251 0.463976711 0.404846936 0.0439132899 0.251072407
      0.0454945043 0.0769925937 0.0484497026 0.24646759 0.00324209034
      0.0749993846 0.166388467 0.24369666 0.0677776635 0.0700839981
      0.0568249449 0.0192598924 0.0232712794 0.0375474915 0.0159038957
      0.0255338512 0.0523610413 0.146501675 0.101683922 0.0658154637
      0.0465886779 0.065468654 0.105850495 0.0839089975 0.118209347
      0.172811687 0.274143696 0.134134695 0.120661885 0.0441899896
      0.0957230777 0.00770866638 0.0939568505 0.211189017 0.242228851
      0.369841188 0.369841188 0.239631727 0.0485625863 0.0710000098
      0.0533874892 0.16474469 0.369841188 0.369841188 0.0856573433
      0.158428967 0.0636792034 0.0372105911 0.0550983623 0.0685610846
      0.0706271231 0.145452976 0.0801934749 0.134816721 0.302892387
      0.0731679052 0.0192008447 0.0330513939 0.0230635144 0.0333900452
      0.158550486 0.0623734482 0.373675019 0.161351785 0.0453178585
      0.020376265 0.0409680903 0.0481792502 0.0738604218 0.373675019
      0.373675019 0.167185679 0.0638267323 0.0151479784 0.00701460941
      0.0245878696 0.0181607008 0.036153499 0.373675019 0.373675019
      0.24229978 0.200716302 0.0166778099 0.0053354688 0.00463420851
      0.00951639749 0.00725756772 0.0550248399 0.0756788179 0.212675646
      0.0693045184 0.00815098081 0.00920230243 0.0867705569 0.0163050741
      0.0146406386 0.0181085542 0.115341038 0.242567554 0.0189062152
      0.00615300238 0.00659348397 0.00493101403 0.00479081646
      0.00967195071 0.443232447 0.443232447 0.295725495 0.0253934804
      0.00679331971 0.0205842275 0.102369867 0.00800873246 0.0106082568
      0.259838343 0.443232447 0.0636075586 0.0101261204 0.0030547278
      0.0459408686 0.413297653 0.0392250717 0.0132414224 0.0101582231
      0.0566777401 0.0403411053 0.00585417263 0.018132655 0.0835542604
      0.413297653 0.0891240239 0.00940769352 0.00724461442 0.0513101704
      0.144048065 0.0599351823 0.0309862662 0.104473636 0.413297653
      0.0357310399 0.015344752 0.0398705341 0.380416483 0.104945444
      0.0543434136 0.042250555 0.125663623 0.413297653 0.168444738
      0.0859346464 0.0533146299 0.165667146 0.117016479 0.011358968
      0.028244555 0.0566867664 0.399231285 0.0665547177 0.00237575849
      0.00314461254 0.101381503 0.149505377 0.000612083299
      0.000393451832 3.22067644e-05 0.00429090904 4.26550723e-05
      0.000158153896 0.000602970598 0.148338377 0.265157759 0.0150611233
      0.0239885282 0.047885675 0.399231285 0.180928528 0.0980553776
      0.0795998573 0.399231285 0.399231285 0.00150833151 0.00087425526
      0.000483101467 0.00699086441 0.00265294779 0.000964806881
      0.0012121154 0.399231285 0.208796769 0. 0. 0. 0. 0. 0. 0.
      0.208796769 0.239266053 0. 0. 0. 0. 0. 0. 0. 0.239266053
      0.445494503 0. 0. 0. 0. 0. 0. 0. 0.445494503 0.445494503 0. 0. 0.
      0. 0. 0. 0. 0.445494503 0.206917286 0. 0. 0. 0. 0. 0. 0.
      0.205912203 0.235279873 0.00202977075 0.000992611866
      0.000783665047 0. 0.000422922341 0.00056604587 0. 0.240071818
      0.446028918 4.46862032e-05 0.000566057628 0.000332841213
      0.000207573103 0. 0. 0. 0.446028918 0.446028918 0.0140458476
      0.00394963333 0.0276036151 0.0145714767 0.0122322347 0.00707070669
      0.0133592617 0.446028918 0.153266862 0.00242935936 0.0019587162
      0.00154640223 0. 0.00137594121 0.00184158119 0.00166409975
      0.173912182 0.176425278 0.0174860563 0.00809014123 0.0362779647
      0.0435532667 0.0299578458 0.0375557691 0.0358646065 0.235976234
      0.438674688 0.0427859202 0.00620341394 0.0388471149 0.0206641704
      0.0241378099 0.00846267398 0.0145563968 0.438674688 0.438674688
      0.212168083 0.138263896 0.0601199679 0.055402033 0.0491401739
      0.00852909219 0.012478319 0.438674688 0.14358148 0.0380128324
      0.0370990522 0.0419918373 0.0336674415 0.0346885361 0.0653039515
      0.0500268526 0.16064696 0.374179453 0.0456623882 0.0426720455
      0.029127568 0.0153456097 0.0243645236 0.0590564646 0.0482741706
      0.374179453 0.374179453 0.239538938 0.190424383 0.0421459936
      0.0345577188 0.0452921502 0.0394244716 0.0287462007 0.233592942
      0.374179453 0.201727539 0.151501521 0.026371913 0.0155452555
      0.0315001905 0.0460773781 0.0372727327 0.374179453 0.34361586
      0.00451501878 0.00336033804 0. 0. 6.84650149e-05 0.0030652117
      0.00394686451 0.34361586 0.34361586 0.102098994 0.0524061956
      0.021498967 0.00237375218 0.0129858125 0.0116885966 0.0436891206
      0.34361586 0.34361586 0.0141344238 0.00491456222 0. 0.
      6.92976682e-05 0.00345516624 0.00329050305 0.34361586 0.34361586
      0.178978369 0.0337439775 0.0166359209 0.00861239247 0.0160698183
      0.0104857981 0.0441031642 0.34361586 0.278127611 0.29120037
      0.195431545 0.0632412583 0.0199729484 0.066363059 0.0367653817
      0.209774762 0.29120037 0.0565984733 0.10984733 0.0772156864
      0.0202336498 0.0188202653 0.0396119729 0.0139669105 0.29120037
      0.277691096 0.29120037 0.29120037 0.135740533 0.0734717846
      0.0717428178 0.111608632 0.0480053797 0.167813152 0.29120037
      0.0678015277 0.0882166177 0.0686689839 0.038888488 0.0664764121
      0.0815904215 0.025663713 0.29120037 0.175189883 0.023116475
      0.00276439288 0.00122391281 0.00110145495 0.00225731451
      0.00110992696 0.00223342469 0.362710744 0.335583508 0.0175832398
      0.00306131365 0.000361405109 0.00300684222 0.00841435324
      0.00770354643 0.0497957133 0.362710744 0.24280563 0.0261566807
      0.00360061298 0.0079049198 0.00691105751 0.00823493488
      0.00391980913 0.0112263551 0.362710744 0.362710744 0.0252367109
      0.0842364207 0.080988273 0.0254438166 0.0221818928 0.00708063086
      0.124335602 0.362710744 0.362710744 0.00444172369 0.00325695728
      0.00705129607 0.042458009 0.124952212 0.130967557 0.109018587
      0.180538461 0.0433738306 0.00206911727 0.00355720753 0.0131629864
      0.151977584 0.332868367 0.332868367 0.147090003 0.144967556
      0.0113985846 0.00466793263 0.0789552927 0.239054739 0.255550832
      0.15492335 0.044802554 0.0777586997 0.275717199 0.180936411
      0.000477550202 0.0345711522 0.332868367 0.332868367 0.332868367
      0.139783636 0.0390108712 0.0432845727 0.0440223664 0.00349993305
      0. 0.000407436019 0.0154162915 0.158005193 0.340760589 0.306208551
      0.31363833 0.0269239061 0.0103749512 0.00286580017 0.000798430177
      0.00959365349 0.072264798 0.340760589 0.340760589 0.340760589
      0.0536611378 0.0035008355 0. 0. 1.29145837e-05 0.00454045413
      0.0773755535 0.0871810988 0.152130693 0.0195281897 0.0249284562
      0.00160382432 0.000109622728 0.000430555869 0.00952326227
      0.112283774 0.340760589 0.340760589 0.151779428 0.0160661601
      0.00579075096 0.00101086113 0.00362387463 0.00934461225
      0.0541183352 0.255515456 0.353287786 0.0872784778 0.0409126021
      0.00661744596 0.00630651833 0.00851878989 0.0318925194
      0.00836081244 0.074483335 0.113361664 0.0973409638 0.0477209054
      0.00399901671 0.000286551978 0.000732076413 0.00886956044
      0.0433321781 0.353287786 0.353287786 0.353287786 0.101233095
      0.00631227111 0.00253288122 0.0121078575 0.0129154874 0.0301314965
      0.353287786 0.353287786 0.353287786 0.108266465 0.0523750186
      0.0422250219 0.0226792507 0.0428934805 0.0028470899 0.0803988427
      0.198390171 0.135146543 0.271658242 0.134556368 0.083088249
      0.0107172206 0.0129038412 0.00253008865 0.0845509842 0.35938251
      0.35938251 0.116430633 0.0066293939 0.00664515235 0.019492669
      0.0138021111 0.0105411457 0.114060134 0.35938251 0.35938251
      0.0640901923 0.00496156979 0.00544066494 0.00495204888
      0.00374924112 0. 0.0315854549 0.35938251 0.35938251 0.196549684
      0.0526118502 0.0154640386 0.00137569918 0.00104151189
      0.00285594421 0.0157028362 0.342078179 0.342078179 0.110088192
      0.0117961587 0.000114320334 0.000238517227 0.000148599109
      0.00124572997 0.00436061108 0.342078179 0.342078179 0.0538672134
      0.00346872257 0.00301943347 0.00267903437 0.00157842564 0.
      0.00830609445 0.342078179 0.342078179 0.0566926338 0.00424107956
      0.00269025052 0.000618238701 0.000105228391 0. 0.00503202621
      0.342078179 0.342078179 0.160350576 0.00685325824 0.000621906598
      0.00111130858 0.000612241856 0.000512829982 0.00276322686
      0.353236377 0.353236377 0.222119272 0.0177897979 0.00159850728
      0.0076294099 0.0142463408 0.00123073661 0.00236741011 0.219483152
      0.353236377 0.0608938783 0.00403880654 0.00220449688 0.00149821199
      0.000514793617 0. 0.00990416016 0.353236377 0.333096385
      0.095264636 0.0053423224 0.00197846768 0.00369717996 0.00223077228
      0. 0.00628438452 0.353236377 0.353236377 0.281537324 0.103998654
      0.0437994748 0.0701059252 0.211478859 0.0442778394 0.0330855474
      0.0674226135 0.289143264 0.195977107 0.10864538 0.0766652375
      0.108291864 0.289143264 0.218240201 0.198209271 0.178588539
      0.289143264 0.138464287 0.0326893926 0.0105046779 0.00870009884
      0.0303353667 0.0285866987 0.0234066062 0.268632323 0.289143264
      0.126840651 0.0444509387 0.034631826 0.034597747 0.10043817
      0.132646844 0.128867358 0.289143264 0.289143264 0.221303448
      0.0202925391 0.0266634189 0.0269359406 0.144862741 0.093862541
      0.0883591548 0.151649699 0.352304101 0.352304101 0.0023361973
      0.001354101 0.000101265658 0.00266834092 0.00249226484
      0.00140975765 0.0223770831 0.352304101 0.265693098 0.0149842761
      0.0195611548 0.0159784202 0.0348411426 0.0548094884 0.0594104044
      0.242052794 0.352304101 0.352304101 0.00181704236 0.00105318963 0.
      0.00104884862 0.00113284774 0.00117589778 0.0449794084 0.352304101
      0.352929503 0. 0. 0. 0. 0. 0. 0. 0.352929503 0.352929503 0. 0. 0.
      0. 0. 0. 0. 0.352929503 0.352929503 0. 0. 0. 0. 0. 0. 0.
      0.352929503 0.352929503 0. 0. 0. 0. 0. 0. 0. 0.352929503
      0.346838802 0.00184373453 0.000312444958 0.000183717246
      0.00011457345 0. 0. 0. 0.346838802 0.346838802 0.0849583894
      0.0105890427 0.0289478041 0.0130173396 0.0111318119 0.00643461989
      0.0123419091 0.346838802 0.346838802 0.00362623809 0.000142020435
      8.35078536e-05 5.20788417e-05 0. 0. 0. 0.346838802 0.346838802
      0.155941859 0.0144681614 0.0245321169 0.0103587583 0.00865807571
      0.005004704 0.0122226458 0.346838802 0.344284892 0.170888036
      0.0442135967 0.109862804 0.0570595302 0.0391656682 0.0137314154
      0.0239724312 0.344284892 0.344284892 0.158866048 0.0829951838
      0.074952811 0.0443783142 0.0198958367 0.00367892813 0.00566831604
      0.344284892 0.344284892 0.264163792 0.0662327558 0.113131076
      0.0584518723 0.0304621905 0.010679991 0.0236717146 0.189124882
      0.344284892 0.100599535 0.0544860959 0.0812058076 0.0480006933
      0.0138464505 0.00246461341 0.00485273497 0.215564281 0.351422906
      0.351422906 0.291273326 0.0123682767 0.00811088923 0.0100758998
      0.00911269896 0.00854246598 0.351422906 0.351422906 0.324872732
      0.21992141 0.00402240874 0.00223021093 0.00681889383 0.0102181528
      0.0102534629 0.351422906 0.269847155 0.0992385149 0.0471337624
      0.00374484831 0.00319072651 0. 0. 4.23290339e-06 0.157651976
      0.133016765 0.0744490027 0.0356343947 0. 0. 0. 0. 6.34935495e-05
      0.0722885355 0.408119887 0.0292352028 0.00890795328 0. 0.
      2.42478327e-05 0.00120899163 0.00134952774 0.408119887 0.408119887
      0.199140668 0.0158091988 0.0126325879 0.00754565466 0.00866209902
      0.00574506028 0.0202808883 0.408119887 0.230226129 0.0594656207
      0.00194796105 0. 0. 0. 0. 4.18383825e-05 0.0859730914 0.408119887
      0.196750209 0. 0. 0. 0. 0. 0. 0.137432382 0.366494417 0.180471256
      0.0366241857 0.0309295226 0.0306636207 0.0326710939 0.0134091955
      0.028063057 0.127637744 0.0722812861 0.0668406337 0.0269888528
      0.017916033 0.0293860286 0.025927728 0.00762815587 0.0221462287
      0.0358974189 0.445795029 0.418070793 0.00515591772 0.
      3.89899287e-05 0. 0. 0. 0.109187059 0.445795029 0.445795029
      0.0192133468 0. 0.000168956365 0. 0. 0. 0.0983847976 0.0530804582
      0.111937627 0.00913217757 0.00146232708 0.00217173388
      0.000661790196 0.00229393365 0.0313078612 0.0281933323
      0.0939188749 0.40668112 0.180287182 0.0120012769 0.00935028214
      0.0024190133 0.0288568623 0.117845267 0.0772678107 0.40668112
      0.40668112 0.0702465475 0. 0.000399651704 0. 0. 7.00449027e-06
      0.0170700345 0.40668112 0.40668112 0.290090591 0.00204752316
      0.0016942129 0.000158310912 0.000304040441 0.000450865075
      0.0115337465 0.0409038626 0.345501393 0.345501393 0.202807024
      0.0512810424 0.00835400727 0.040268518 0.104667261 0.0785349831
      0.0107347472 0.226225898 0.345501393 0.345501393 0.147939861
      0.00924173556 0.0165841542 0.0204545259 0.0190201905 0.152894348
      0.345501393 0.345501393 0.0384489857 0.00341114611 0.000473703869
      0.000909761409 0.000672173279 0.00913328584 0.0235009156
      0.252722561 0.218391061 0.0679559708 0.00738488138 0.000215319946
      0.000413527887 0.000132463305 0.00354938954 0.00597410602 0. 0. 0.
      0.00222589099 0. 0.0115552284 0.110084511 0.0264936015 0.129543155
      0. 0. 0. 0.0421016961 0.0490188301 0.565783918 0.565783918
      0.565783918 0. 0. 0. 0. 0. 0. 0. 0. 0. 0.00532193296 0. 0. 0.
      0.00189258566 0. 0.000622991472 0.00199004519 0.00532193296
      0.0540114343 0.000117748219 0. 0. 0.010479318 0.0202438477
      0.355393559 0.398138225 0.382181436 0.133808807 0.00324194063
      0.00142299209 0.00705617247 0.00966580398 0.0231455192 0.393613845
      0.398138225 0.398138225 0.00551739475 0. 0. 0. 0.0014988723
      0.000526245916 0.0095125651 0.0140380822 0.0229287371 0.0330867991
      0. 0. 0. 0.00116578955 0.000676601892 0.0136601627 0.130852222
      0.227808312 0.0843714774 0.00156349456 0.00141527725 0.00496603688
      0.00276858383 0.00337853027 0.0465982631 0.380483717 0.380483717
      0.113852799 0.0012167407 0.00164340495 0.00325174839 0.0028074549
      0. 0.0216754247 0.380483717 0.380483717 0.0297658592 0. 0. 0. 0.
      5.52377642e-05 0.00187439297 0.176424086 0.278399587 0.09980762
      0.000265687529 0.000303877488 0.000605720736 0.000588390336 0.
      0.00864550564 0.36056605 0.380483717 0.125728816 0.00428548129
      0.0037383521 0.00351913576 0.0020733939 0. 0.0107186809
      0.343481451 0.343481451 0.130516142 0.00653156033 0.00589108653
      0.000812108221 0.000138226256 0. 0.00737782428 0.343481451
      0.343481451 0.111374654 0.00135704549 0.00120645878 0.000812108221
      0.0004784755 0. 0.00426419685 0.283896148 0.343481451 0.210963473
      0.0031702891 0.00300486223 0.000187409591 3.18983657e-05 0.
      0.00495334342 0.343481451 0.343481451 0.145087644 0.00331945973
      0.00451669935 0.000370456808 0.000127290914 5.28231976e-05
      0.00794389844 0.316843152 0.316843152 0.131768867 0.00622275379
      0.00203097006 0.000815004925 0.000551593956 0.000792347884
      0.00485740928 0.316843152 0.316843152 0.305731714 0.00272801239
      0.00318832952 0. 0. 6.79155346e-05 0.00434689363 0.248110935
      0.316843152 0.316843152 0.00794783514 0.0013177963 0. 0.
      0.00101873302 0.00279865693 0.316843152 0.316843152 0.094211325
      0.00444695726 0.000318323408 0.000164713056 0.00218377053
      0.00189514959 0.00345895742 0.320680648 0.310700864 0.0708441809
      0.000921089319 0.00167686178 0. 0.00430531241 0.007001922
      0.0195436552 0.311744571 0.311383665 0.326916009 0.00601339946 0.
      0. 0. 0.00055965787 0.00142011675 0.232623115 0.326916009
      0.326916009 0.00253915577 0. 0. 0. 0.000181775948 0.0173531249
      0.326916009 0.326916009 0.125241116 0.000522243034 0.000885210524
      0. 0.00114510302 0.00350026553 0.0180534013 0.155937716 0.27907598
      0.243944824 0.000102918428 0. 0. 0. 5.83787041e-05 0.00167901476
      0.015744986 0.331234336 0.388277441 0.00632391497 0. 0. 0.
      0.000325252768 0.0208336376 0.318849564 0.388277441 0.388277441
      0.00287450687 0. 0. 0. 7.50583349e-05 0.00229521282 0.0568227954
      0.388277441 0.249920443 0. 0. 0. 0. 0. 0. 0.000641513208
      0.264201969 0.295593888 0. 0. 0. 0. 0. 0. 0. 0.292864442
      0.415454119 0. 0. 0. 0. 0. 0. 0.00572563289 0.415454119
      0.415454119 0. 0. 0. 0. 0. 0. 0. 0.415454119 0.265870899
      0.00143604027 0. 0. 0. 0. 0. 0.00105926348 0.24994421 0.34351182
      0.042589277 0.00174781331 0.00134050648 0.000468481652 0. 0.
      0.00266394508 0.231297255 0.41125989 0.0171397254 0. 0. 0. 0. 0.
      0.00348661211 0.41125989 0.41125989 0.111756414 0. 0. 0. 0. 0.
      0.00837139133 0.41125989 0.337603718 0.0538111776 0.00606465898
      0.00581227103 0.00303940079 0. 0. 0.00189072383 0.104797885
      0.336504668 0.0301425289 0.00423361547 0.00460295239 0.00287032081
      0. 0. 0.00221317029 0.197420225 0.415872425 0.134925485 0. 0. 0.
      0. 0. 0.00235298555 0.415872425 0.415872425 0.0687094256 0. 0. 0.
      0. 0. 0.00242056441 0.415872425 0.292759597 0.0938502103
      0.000201978663 0.00025501108 0.000163566117 0. 0. 0.00178235956
      0.161030367 0.367545962 0.173512831 7.93644813e-06 0. 0. 0. 0.
      0.000224034506 0.162706554 0.367545962 0.234619394 0. 0. 0. 0. 0.
      0.00228802674 0.367545962 0.367545962 0.359209508 0. 0. 0. 0. 0.
      0.000234365521 0.307984561 0.385314465 0.215650827 0. 0. 0. 0. 0.
      6.46823391e-05 0.115773961 0.385314465 0.324629247 0. 0. 0. 0. 0.
      0. 0.135532036 0.385314465 0.289525867 0. 0. 0. 0. 0.
      5.03084811e-05 0.179729208 0.385314465 0.290315926 0. 0. 0. 0. 0.
      0. 0.134939089 0.381848842 0.381848842 0.0019748786 0. 0. 0. 0. 0.
      0.118042909 0.381848842 0.381848842 0.00593158929 0. 0. 0. 0. 0.
      0.0503361113 0.381848842 0.261469543 9.70107358e-05 0. 0. 0. 0. 0.
      0.0921895653 0.338385344 0.242341354 0.000135812312 0. 0. 0. 0. 0.
      0.0231590159 0.466362447 0.466362447 0.090137288 0. 0. 0. 0. 0.
      0.0354276299 0.464436144 0.466362447 0.181773886 0. 0. 0. 0. 0.
      0.0218617227 0.226976603 0.172700256 0.00332780625 0. 0. 0. 0. 0.
      0.0150566204 0.0372386463 0.0351146869 0.00529089198 0. 0. 0. 0.
      0. 0.0055132173 0.588057458 0.600123405 0.450234681 0.
      0.000998685253 0. 0. 0. 0.0505846031 0.0506665073 0.277997732
      0.0512787364 0. 0.00432763621 0. 0. 0. 0.00921597704 0.00618781568
      0.010916654 0.00487416517 0. 0. 0. 0. 0. 0.00358312251
      5.69660588e-05 0. 0. 0. 0. 0. 0. 0. 5.69660588e-05 0. 0. 0. 0. 0.
      0. 0. 0. 0. 0. 0. 0. 0. 0. 0. 0. 0. 0. 0. 0. 0. 0. 0. 0. 0. 0. 0.
      0. 0. 0. 0. 0. 0. 0. 0. 0. 0. 0. 0. 0. 0. 0. 0. 0. 0. 0.240961626
      0. 0. 0. 0. 0. 0. 0. 0.240961626 0. 0. 0. 0. 0. 0. 0. 0. 0. 0. 0.
      0. 0. 0. 0. 0. 0. 0. 0.0314650573 0. 0. 0. 0. 0. 0. 0.0318957344
      0.0773492008 0.318632603 0. 0. 0. 0. 0. 0. 0.239183098 0.907135963
      0. 0. 0. 0. 0. 0. 0. 0. 0. 0. 0. 0. 0. 0. 0. 0. 0. 0. 0.0941705331
      0. 0. 0. 0. 0. 0. 0.205644786 0.501760125 0.424752593
      0.00055084395 0. 0. 0. 0. 0. 0.505773008 0.505773008 0. 0. 0. 0.
      0. 0. 0. 0. 0. 0. 0. 0. 0. 0. 0. 0. 0. 0. 0.39282015
      0.000737872731 0. 0. 0. 4.17363735e-05 1.9318064e-05 0.261763453
      0.456442028 0.456442028 0.00484368578 0. 0. 0. 0.000626045628
      0.000289770949 0.384002984 0.456442028 0.00067662762 0. 0. 0. 0.
      0. 0. 0. 0.00067662762 0.00745929033 0. 0. 0. 0. 0. 0. 0.
      0.00745929033 0.451380312 0.00297619519 0. 0. 0. 0.000250673475
      0.000116026524 0.109959044 0.451380312 0.451380312 0.00579382526
      0. 0. 0. 8.14183368e-05 0.0101225413 0.40900293 0.451380312
      0.00714747189 0. 0. 0. 0. 0. 0. 0.000238892375 0.00804497488
      0.0171260275 0.000218959816 0. 0. 0. 0. 0. 0.00322403572
      0.0239919666 0.479855299 0.0111177983 0. 0. 0. 9.8120945e-05
      0.00807169266 0.253444135 0.479855299 0.479855299 0.00505354488 0.
      0. 0. 2.26432949e-05 0.000818607688 0.0676477849 0.479855299
      0.0217269193 0.000435062015 0. 0. 0. 0. 0. 0.00221740711
      0.0278216675 0.0401037671 0.000197755464 0. 0. 0. 0. 0.
      0.00092625618 0.0477198511 0.496767849 0. 0. 0. 0. 0. 0.
      0.00655535609 0.496767849 0.496767849 0. 0. 0. 0. 0. 0. 0.
      0.496767849 0.0403206386 0. 0. 0. 0. 0. 0. 7.8302226e-05
      0.0418880805 0.0478833355 0. 0. 0. 0. 0. 0. 0. 0.0470006131
      0.493493408 0.0257696956 0. 0. 0. 0. 0. 0.00311598112 0.493493408
      0.493493408 0.122835688 0. 0. 0. 0. 0. 0.0102677373 0.493493408
      0.0421364419 0.000575997576 0. 0. 0. 0. 0. 6.59478392e-05
      0.0356449522 0.03504958 0.00178725098 0. 0. 0. 0. 0.
      0.000285773975 0.0279700086 0.490636498 0.165936291 0. 0. 0. 0. 0.
      0.0041269362 0.490636498 0.490636498 0.0610350221 0. 0. 0. 0. 0.
      0.000864297326 0.490636498 0.0225153845 0.00196952792 0. 0. 0. 0.
      0. 0.0001253972 0.0159817375 0.00993637927 0.000414119102 0. 0. 0.
      0. 0. 0. 0.00774515932 0.47478053 0.26929304 0. 0. 0. 0. 0.
      0.00123423536 0.47478053 0.47478053 0.364490449 0. 0. 0. 0. 0.
      8.22823567e-05 0.336928189 0.00726689398 0. 0. 0. 0. 0. 0. 0.
      0.00726689398 0.00205204939 0. 0. 0. 0. 0. 0. 0. 0.00205204939
      0.548138201 0.418671906 0. 0. 0. 0. 0. 0. 0.365909904 0.548138201
      0.225919574 0. 0. 0. 0. 0. 0. 0.182755113 9.67319211e-05 0. 0. 0.
      0. 0. 0. 0. 9.67319211e-05 0. 0. 0. 0. 0. 0. 0. 0. 0. 0.867980897
      0.276874393 0. 0. 0. 0. 0. 0. 0.32891205 0.206446558 0.0634096712
      0. 0. 0. 0. 0. 0. 0.0804037824 0. 0. 0. 0. 0. 0. 0. 0. 0. 0. 0. 0.
      0. 0. 0. 0. 0. 0. 0.700477242 0.0673167259 0. 0. 0. 0. 0. 0.
      0.399915427 0. 0. 0. 0. 0. 0. 0. 0. 0. 0. 0. 0. 0. 0. 0. 0. 0. 0.
      0. 0. 0. 0. 0. 0. 0. 0. 0. 0. 0. 0. 0. 0. 0. 0. 0. 0. 0. 0. 0. 0.
      0. 0. 0. 0. 0. 0. 0. 0. 0. 0. 0. 0. 0. 0. 0. 0. 0. 0. 0. 0. 0. 0.
      0.</_>
    <_>
      0.00317866239 0.00287541631 0. 0. 0. 0. 0. 0. 0.00148548791
      0.0473863557 0.0288716555 0. 0. 0. 0. 0. 0. 0.015407051
      0.244734392 0.394698411 0.147603959 0. 0. 0. 0. 0. 0.0238524787
      0.606530964 0.606530964 0.0989439264 0. 0. 0. 0. 0. 0.0837846547
      0.0600375235 0.0272099134 0. 0. 0. 0. 0. 0. 0.0147507135
      0.198587969 0.0861248001 0. 0. 0. 0. 0. 0. 0.0241102651
      0.483398974 0.483398974 0.00101286406 0. 0. 0. 0. 0. 0.0487618372
      0.483398974 0.483398974 0.000793292653 0. 0. 0. 0. 0. 0.0780750141
      0.192217618 0.100752302 0. 0. 0. 0. 0. 0. 0.0156324618 0.416137338
      0.150719032 0. 0. 0. 0. 0. 0. 0.0448678359 0.429254591 0.429254591
      0.00246611983 0. 0. 0. 0. 0. 0.0411774814 0.429254591 0.429254591
      0.00360434642 0. 0. 0. 0. 0. 0.108244233 0.387884885 0.0845850185
      0. 0. 0. 0. 0. 0. 0.0987436995 0.405369043 0.146437794 0. 0. 0. 0.
      0. 0. 0.166453794 0.405369043 0.225677207 0.000540760986 0. 0. 0.
      0. 0. 0.199592605 0.405369043 0.328766197 0. 0. 0. 0. 0. 0.
      0.295994848 0.39513281 0.135060236 0. 0. 0. 0. 0. 0. 0.152735606
      0.39513281 0.119324312 0. 0. 0. 0. 0. 0. 0.234800816 0.39513281
      0.247398928 0. 0. 0. 0. 0. 0. 0.243419737 0.39513281 0.203166753
      0. 0. 0. 0. 0. 0. 0.314416409 0.380750149 0.0822862834 0. 0. 0. 0.
      0. 0.000126100873 0.214001954 0.380750149 0.0653432161 0. 0. 0. 0.
      0. 0.00189151277 0.372208595 0.380750149 0.112912983 0. 0. 0. 0.
      0. 9.80784534e-05 0.239250481 0.380750149 0.0772649422 0. 0. 0. 0.
      0. 0.00157635158 0.380750149 0.354272634 0.0317247137 0. 0. 0. 0.
      0. 0.00114835415 0.339968741 0.354272634 0.0173346251 0. 0. 0. 0.
      0. 9.98614196e-05 0.354272634 0.354272634 0.0279627275 0. 0. 0. 0.
      0. 0.00215963367 0.354272634 0.354272634 0.0148588847 0. 0. 0. 0.
      0. 0.00153526675 0.354272634 0.35289976 0.00549733406 0. 0. 0. 0.
      0. 1.34505981e-05 0.35289976 0.35289976 2.14941829e-05 0. 0. 0. 0.
      0. 0.00743718585 0.35289976 0.35289976 0.00544700213 0. 0. 0. 0.
      0. 0.000606942689 0.35289976 0.35289976 0.000687752734 0. 0. 0. 0.
      0. 0.00721968384 0.35289976 0.339899868 9.6866177e-05 0. 0. 0. 0.
      0. 0.0161904544 0.354115337 0.354115337 0.00149485609 0. 0. 0. 0.
      0. 0.0385408737 0.354115337 0.354115337 0.00149668823 0. 0. 0. 0.
      0. 0.0136756981 0.354115337 0.354115337 0.0024235209 0. 0. 0. 0.
      0. 0.0346625857 0.354115337 0.33723855 0.0015461382 0. 0. 0. 0. 0.
      0.0484921932 0.387904376 0.26147601 0.000103075879 0. 0. 0. 0. 0.
      0.0862487108 0.387904376 0.332853228 0.00127842254 0. 0. 0. 0. 0.
      0.0618350767 0.387904376 0.27180171 8.01701317e-05 0. 0. 0. 0. 0.
      0.117730282 0.387904376 0.188823029 0. 0. 0. 0. 0. 0. 0.128527507
      0.400247306 0.176062524 0. 0. 0. 0. 0. 0. 0.137320012 0.400247306
      0.247302905 0. 0. 0. 0. 0. 0. 0.197421923 0.400247306 0.271180391
      0. 0. 0. 0. 0. 0. 0.281972855 0.400247306 0.127962306 0. 0. 0. 0.
      0. 0. 0.116793931 0.412846893 0.088784188 0. 0. 0. 0. 0. 0.
      0.112150468 0.412846893 0.24634929 0. 0. 0. 0. 0. 0. 0.276431859
      0.412846893 0.215036109 0. 0. 0. 0. 0. 0.00356811029 0.283327013
      0.412846893 0.0402024984 0. 0. 0. 0. 0. 0. 0.137819737 0.368891686
      0.0264042933 0. 0. 0. 0. 0. 0. 0.111537196 0.224976912
      0.0921844989 0. 0. 0. 0. 0. 0.0131597938 0.436552614 0.436552614
      0.0645087957 0. 0. 0. 0. 0. 0.0070733577 0.436552614 0.436552614
      0.0231419392 0. 0. 0. 0. 0. 0. 0.0939738825 0.164850876
      0.0163642056 0. 0. 0. 0. 0. 0. 0.0342334285 0.0642473772
      0.0672596171 0. 0. 0. 0. 0. 0.000686987245 0.486126333 0.486126333
      0.0568739995 0. 0. 0. 0. 0. 0.000700133969 0.486126333 0.486126333
      0.0110133654 0. 0. 0. 0. 0. 0. 0.0218970627 0.0343077704
      0.00131865754 0. 0. 0. 0. 0. 0. 0.00254097977 0.0027290727
      0.0671729445 0. 0. 0. 0. 0. 0.0188794918 0.561544776 0.561544776
      0.0291869882 0. 0. 0. 0. 0. 0.0749588087 0.517490506 0.287747055
      0.142322317 0.356112033 0.133621544 0. 0. 0. 0. 0. 0.00986251421
      0.356112033 0.356112033 0.151696786 0.000194290769 0. 0. 0. 0.
      0.0270188265 0.187929079 0.356112033 0.283237278 0.00115380809 0.
      0. 0. 0. 0.0162126888 0.238905817 0.356112033 0.356112033
      0.0117122168 0.000515063177 0. 0. 0. 0.024073353 0.337513119
      0.337513119 0.0432418995 0.000163362434 0. 0. 0. 0. 0.0305859651
      0.337513119 0.337513119 0.0152557138 1.08908289e-05 0. 0. 0. 0.
      0.0322644338 0.301277012 0.337513119 0.238635793 0.00960174482
      0.00117721292 0. 0. 0. 0.0563467406 0.337513119 0.337513119
      0.201550096 0.00347553496 0.000535096799 0. 0. 0. 0.059368901
      0.350569099 0.350569099 0.0100939199 0. 0. 0. 0. 0. 0.0204559881
      0.350569099 0.350569099 0.00461561512 0. 0. 0. 0. 0. 0.0523555204
      0.340074897 0.350569099 0.121697508 0.00123457937 0. 0. 0. 0.
      0.0252909046 0.350569099 0.350569099 0.0342729725 1.67058679e-05
      0. 0. 0. 0. 0.0254285354 0.37873432 0.260372669 0.000884224719 0.
      0. 0. 0. 0. 0.102431789 0.37873432 0.290918082 0. 0. 0. 0. 0. 0.
      0.130982384 0.37873432 0.358828247 0.0133014191 2.42861915e-06 0.
      0. 0. 0. 0.0220076423 0.37873432 0.334899396 0.00072654977 0. 0.
      0. 0. 0. 0.0283493381 0.420327574 0.238548487 0. 0. 0. 0. 0. 0.
      0.140085265 0.420327574 0.220795214 0. 0. 0. 0. 0. 0. 0.153595924
      0.420327574 0.267810106 0. 0. 0. 0. 0. 0. 0.042453438 0.420327574
      0.252707899 0. 0. 0. 0. 0. 0. 0.0533188879 0.429280013 0.116040848
      0. 0. 0. 0. 0. 0. 0.201842412 0.429280013 0.0885489658 0. 0. 0. 0.
      0. 0.000717504823 0.289396375 0.429280013 0.176064938 0. 0. 0. 0.
      6.74321491e-05 2.32340171e-05 0.112840869 0.429280013 0.146577805
      0. 0. 0. 0. 0.000292205979 0.000658740057 0.218109101 0.364313662
      0.048478324 0. 0. 0. 0. 0. 0.00212955964 0.360414505 0.364313662
      0.0236623324 0. 0. 0. 0. 0. 0.00160010578 0.364313662 0.364313662
      0.0949321315 0. 0. 0. 0. 9.80159384e-05 0.00162596803 0.238445252
      0.364313662 0.036362581 0. 0. 0. 0. 0. 0.00212909537 0.364313662
      0.352856904 0.00968552008 0. 0. 0. 0. 0. 0.00284490851 0.352856904
      0.352856904 0.00269022631 0. 0. 0. 0. 0. 0.0121386694 0.352856904
      0.352856904 0.00690905703 0. 0. 0. 0. 0. 0.0035290441 0.352856904
      0.352856904 0.00263637956 0. 0. 0. 0. 0. 0.00932799838 0.352856904
      0.366635054 0.00161767157 0. 0. 0. 0. 0. 0.0222756173 0.366635054
      0.366635054 0.00230390951 0. 0. 0. 0. 0. 0.0603505708 0.366635054
      0.326843441 0.00197639316 0. 0. 0. 0. 0.00020192971 0.0387014747
      0.366635054 0.252462059 0.00253468612 0. 0. 0. 0. 0.000479437527
      0.116580538 0.366635054 0.236828536 0.000487809128 0. 0. 0. 0. 0.
      0.0723796785 0.42398271 0.213188931 0. 0. 0. 0. 0. 0. 0.119354621
      0.42398271 0.18847248 0.00264931913 0.00392021332 6.50595684e-05
      0.000194079796 0.00198571058 0.000122068013 0.109961405 0.42398271
      0.290897369 0.0203380231 0.016987592 0.000281924789 0.000426975603
      0.00436856365 0.00447574398 0.150648057 0.42398271 0.12426506 0.
      0. 0. 0. 0. 1.07344349e-05 0.16005303 0.405618399 0.13905555 0. 0.
      0. 0. 0. 0.00016101652 0.263582557 0.405618399 0.234240189
      0.0112712327 0.00654841214 0.000213453837 8.5869171e-05
      0.00147725968 0.0108384676 0.186062381 0.405618399 0.0967910886
      0.000907469715 0.00396827096 0.000519890222 0. 0.00131713273
      0.0148155754 0.32952708 0.405618399 0.121033452 0. 0. 0. 0. 0.
      9.32059847e-05 0.248920336 0.374453396 0.128948778 0. 0. 0. 0. 0.
      0.00454326021 0.315807432 0.374453396 0.0285426211 0.000193246247
      0.0013932446 0.000182531454 0. 0.000280484179 0.00467961188
      0.316203833 0.374453396 0.0324739665 0. 0. 0. 0. 0. 0.0176335108
      0.374453396 0.374453396 0.0385416076 0. 0. 0. 0. 0. 0.0119958175
      0.349824786 0.349824786 0.0294379462 0. 0. 0. 0. 0. 0.0124549232
      0.349824786 0.349824786 0.0151101267 0. 0. 0. 0. 0. 0.032283783
      0.349824786 0.349824786 0.0182914305 0. 0. 0. 0. 0.00027164357
      0.115018964 0.349824786 0.349824786 0.0264780764 0. 0. 0. 0.
      1.33937137e-05 0.00867261924 0.337036043 0.337036043 0.0303751845
      0. 0. 0. 0. 0.000200905706 0.0514909104 0.337036043 0.337036043
      0.0229275692 0. 0. 0. 0.00069043308 0.0047864709 0.112441301
      0.337036043 0.337036043 0.0302348714 0. 0. 0. 0.00151895289
      0.0154943829 0.264907539 0.337036043 0.335565925 0.022908641 0. 0.
      0. 0. 0.000150515407 0.0774781257 0.356568009 0.350372285
      0.0123131545 0. 0. 0. 0. 0. 0.120545872 0.356568009 0.149432629
      0.0197126307 0. 0. 0. 0.000418637792 0.0134968348 0.343685716
      0.356568009 0.208867967 0.0197926853 0. 0. 0. 0. 0.0118060056
      0.35035044 0.356568009 0.189684212 0.0838737413 0.340971857
      0.340971857 0.0224182904 0.00470471289 0.00385938375 0. 0.
      0.0128000993 0.0726917312 0.340971857 0.340971857 0.0673620701
      0.00324986805 0. 0. 0. 0.00959159341 0.0135942167 0.294370711
      0.340971857 0.207317576 0.0746315867 0.033541318 0.00287221186 0.
      0.00527218403 0.0554397888 0.340971857 0.340971857 0.153840303
      0.040026553 0.0129585536 0.0022152618 0. 0.00567221874 0.162377968
      0.339634925 0.345356792 0.0865473747 0.00895827729 0. 0. 0.
      0.0521082692 0.221056297 0.345356792 0.345356792 0.0423249193
      0.00473462837 0. 0. 0. 0.0639080629 0.0587905571 0.180375248
      0.345356792 0.213667527 0.031869024 0.000766034063 0. 0.
